<?xml version="1.0"?>
<opencv_storage>
<cascade>
  <stageType>BOOST</stageType>
  <featureType>HAAR</featureType>
  <height>20</height>
  <width>20</width>
  <stageParams>
    <boostType>GAB</boostType>
    <minHitRate>9.9500000476837158e-01</minHitRate>
    <maxFalseAlarm>5.0000000000000000e-01</maxFalseAlarm>
    <weightTrimRate>9.4999999999999996e-01</weightTrimRate>
    <maxDepth>1</maxDepth>
    <maxWeakCount>100</maxWeakCount></stageParams>
  <featureParams>
    <maxCatCount>0</maxCatCount>
    <featSize>1</featSize>
    <mode>BASIC</mode></featureParams>
  <stageNum>13</stageNum>
  <stages>
    <!-- stage 0 -->
    <_>
      <maxWeakCount>7</maxWeakCount>
      <stageThreshold>-1.4392352104187012e+00</stageThreshold>
      <weakClassifiers>
        <_>
          <internalNodes>
            0 -1 93 -3.1433060765266418e-02</internalNodes>
          <leafValues>
            7.4576270580291748e-01 -6.2561577558517456e-01</leafValues></_>
        <_>
          <internalNodes>
            0 -1 300 1.5821143984794617e-02</internalNodes>
          <leafValues>
            -3.7412220239639282e-01 5.7669061422348022e-01</leafValues></_>
        <_>
          <internalNodes>
            0 -1 14 1.8389571458101273e-02</internalNodes>
          <leafValues>
            -3.0817073583602905e-01 5.4905587434768677e-01</leafValues></_>
        <_>
          <internalNodes>
            0 -1 484 -9.2721097171306610e-03</internalNodes>
          <leafValues>
            6.7951929569244385e-01 -1.7424000799655914e-01</leafValues></_>
        <_>
          <internalNodes>
            0 -1 331 3.3986659254878759e-03</internalNodes>
          <leafValues>
            -3.1648537516593933e-01 3.8492009043693542e-01</leafValues></_>
        <_>
          <internalNodes>
            0 -1 1 9.1126579791307449e-03</internalNodes>
          <leafValues>
            -2.4227593839168549e-01 4.4136837124824524e-01</leafValues></_>
        <_>
          <internalNodes>
            0 -1 141 -7.2879001498222351e-02</internalNodes>
          <leafValues>
            3.7370178103446960e-01 -2.5555181503295898e-01</leafValues></_></weakClassifiers></_>
    <!-- stage 1 -->
    <_>
      <maxWeakCount>20</maxWeakCount>
      <stageThreshold>-1.2689414024353027e+00</stageThreshold>
      <weakClassifiers>
        <_>
          <internalNodes>
            0 -1 203 2.3161552846431732e-02</internalNodes>
          <leafValues>
            -4.5717731118202209e-01 6.8359166383743286e-01</leafValues></_>
        <_>
          <internalNodes>
            0 -1 48 4.8192804679274559e-03</internalNodes>
          <leafValues>
            -1.3372667133808136e-01 7.2248721122741699e-01</leafValues></_>
        <_>
          <internalNodes>
            0 -1 43 -1.6482514142990112e-01</internalNodes>
          <leafValues>
            4.4532594084739685e-01 -3.1237858533859253e-01</leafValues></_>
        <_>
          <internalNodes>
            0 -1 380 -1.7203809693455696e-03</internalNodes>
          <leafValues>
            3.7015256285667419e-01 -3.5964289307594299e-01</leafValues></_>
        <_>
          <internalNodes>
            0 -1 404 -4.9422942101955414e-03</internalNodes>
          <leafValues>
            4.6361276507377625e-01 -1.8541802465915680e-01</leafValues></_>
        <_>
          <internalNodes>
            0 -1 432 -5.6491941213607788e-03</internalNodes>
          <leafValues>
            5.1380825042724609e-01 -1.4722438156604767e-01</leafValues></_>
        <_>
          <internalNodes>
            0 -1 110 -9.8323719576001167e-03</internalNodes>
          <leafValues>
            4.0643042325973511e-01 -2.2612743079662323e-01</leafValues></_>
        <_>
          <internalNodes>
            0 -1 376 1.9620895385742188e-02</internalNodes>
          <leafValues>
            -1.7903254926204681e-01 4.3947142362594604e-01</leafValues></_>
        <_>
          <internalNodes>
            0 -1 52 -4.5353369787335396e-03</internalNodes>
          <leafValues>
            4.5837578177452087e-01 -1.5592081844806671e-01</leafValues></_>
        <_>
          <internalNodes>
            0 -1 29 8.9690024033188820e-03</internalNodes>
          <leafValues>
            -1.6068038344383240e-01 5.3600805997848511e-01</leafValues></_>
        <_>
          <internalNodes>
            0 -1 30 -4.4259941205382347e-03</internalNodes>
          <leafValues>
            2.3221127688884735e-01 -2.9241192340850830e-01</leafValues></_>
        <_>
          <internalNodes>
            0 -1 303 -1.2664842419326305e-02</internalNodes>
          <leafValues>
            3.1100094318389893e-01 -2.2437667846679688e-01</leafValues></_>
        <_>
          <internalNodes>
            0 -1 446 -3.8987249135971069e-03</internalNodes>
          <leafValues>
            3.6007204651832581e-01 -1.5873588621616364e-01</leafValues></_>
        <_>
          <internalNodes>
            0 -1 291 1.3640118762850761e-02</internalNodes>
          <leafValues>
            -2.7148759365081787e-01 2.3837161064147949e-01</leafValues></_>
        <_>
          <internalNodes>
            0 -1 259 1.7460222588852048e-03</internalNodes>
          <leafValues>
            -2.3185497522354126e-01 2.7938750386238098e-01</leafValues></_>
        <_>
          <internalNodes>
            0 -1 201 -3.3683709334582090e-03</internalNodes>
          <leafValues>
            -7.4978059530258179e-01 9.5021307468414307e-02</leafValues></_>
        <_>
          <internalNodes>
            0 -1 95 -2.6209889911115170e-03</internalNodes>
          <leafValues>
            3.4063321352005005e-01 -1.9236901402473450e-01</leafValues></_>
        <_>
          <internalNodes>
            0 -1 261 -7.6713319867849350e-03</internalNodes>
          <leafValues>
            -7.0311796665191650e-01 8.7703727185726166e-02</leafValues></_>
        <_>
          <internalNodes>
            0 -1 66 6.4663910306990147e-03</internalNodes>
          <leafValues>
            -2.2044499218463898e-01 2.7871760725975037e-01</leafValues></_>
        <_>
          <internalNodes>
            0 -1 232 4.5388184487819672e-02</internalNodes>
          <leafValues>
            -1.9948926568031311e-01 2.8975749015808105e-01</leafValues></_></weakClassifiers></_>
    <!-- stage 2 -->
    <_>
      <maxWeakCount>23</maxWeakCount>
      <stageThreshold>-9.6630358695983887e-01</stageThreshold>
      <weakClassifiers>
        <_>
          <internalNodes>
            0 -1 205 5.1393266767263412e-02</internalNodes>
          <leafValues>
            -2.5410872697830200e-01 5.7674175500869751e-01</leafValues></_>
        <_>
          <internalNodes>
            0 -1 11 2.5216888636350632e-02</internalNodes>
          <leafValues>
            -2.4525585770606995e-01 5.2092176675796509e-01</leafValues></_>
        <_>
          <internalNodes>
            0 -1 299 1.3409488834440708e-02</internalNodes>
          <leafValues>
            -3.5244846343994141e-01 2.9633986949920654e-01</leafValues></_>
        <_>
          <internalNodes>
            0 -1 488 -8.8432338088750839e-03</internalNodes>
          <leafValues>
            5.0286185741424561e-01 -1.8282851576805115e-01</leafValues></_>
        <_>
          <internalNodes>
            0 -1 68 8.5639394819736481e-03</internalNodes>
          <leafValues>
            -2.2792060673236847e-01 3.8431546092033386e-01</leafValues></_>
        <_>
          <internalNodes>
            0 -1 229 -5.0713373348116875e-03</internalNodes>
          <leafValues>
            3.3919167518615723e-01 -2.5406134128570557e-01</leafValues></_>
        <_>
          <internalNodes>
            0 -1 448 -3.9220089092850685e-03</internalNodes>
          <leafValues>
            3.6261960864067078e-01 -2.1666157245635986e-01</leafValues></_>
        <_>
          <internalNodes>
            0 -1 32 -3.9369044825434685e-03</internalNodes>
          <leafValues>
            4.2015156149864197e-01 -1.7439419031143188e-01</leafValues></_>
        <_>
          <internalNodes>
            0 -1 84 -1.0396155528724194e-02</internalNodes>
          <leafValues>
            2.1959340572357178e-01 -3.2848921418190002e-01</leafValues></_>
        <_>
          <internalNodes>
            0 -1 75 -4.2556794360280037e-03</internalNodes>
          <leafValues>
            3.8594910502433777e-01 -2.0764306187629700e-01</leafValues></_>
        <_>
          <internalNodes>
            0 -1 217 2.9557792004197836e-03</internalNodes>
          <leafValues>
            -2.3633523285388947e-01 2.7037024497985840e-01</leafValues></_>
        <_>
          <internalNodes>
            0 -1 327 1.2810401618480682e-02</internalNodes>
          <leafValues>
            -2.8886982798576355e-01 2.1712855994701385e-01</leafValues></_>
        <_>
          <internalNodes>
            0 -1 426 -7.2317915037274361e-03</internalNodes>
          <leafValues>
            4.3012785911560059e-01 -1.2905144691467285e-01</leafValues></_>
        <_>
          <internalNodes>
            0 -1 283 1.7667163163423538e-02</internalNodes>
          <leafValues>
            -1.1645474284887314e-01 4.7176077961921692e-01</leafValues></_>
        <_>
          <internalNodes>
            0 -1 223 7.9792807810008526e-04</internalNodes>
          <leafValues>
            -1.6277272999286652e-01 3.2888194918632507e-01</leafValues></_>
        <_>
          <internalNodes>
            0 -1 107 -3.8829087279736996e-03</internalNodes>
          <leafValues>
            2.7839019894599915e-01 -1.9381566345691681e-01</leafValues></_>
        <_>
          <internalNodes>
            0 -1 224 -1.5075174160301685e-03</internalNodes>
          <leafValues>
            3.9447656273841858e-01 -1.4355911314487457e-01</leafValues></_>
        <_>
          <internalNodes>
            0 -1 161 1.2251282110810280e-02</internalNodes>
          <leafValues>
            1.4475773274898529e-01 -3.9421549439430237e-01</leafValues></_>
        <_>
          <internalNodes>
            0 -1 102 -4.4006882235407829e-03</internalNodes>
          <leafValues>
            4.4643390178680420e-01 -1.3803014159202576e-01</leafValues></_>
        <_>
          <internalNodes>
            0 -1 55 -1.8408442847430706e-03</internalNodes>
          <leafValues>
            2.6794496178627014e-01 -1.9597159326076508e-01</leafValues></_>
        <_>
          <internalNodes>
            0 -1 447 1.4216952957212925e-02</internalNodes>
          <leafValues>
            -7.5373366475105286e-02 6.7720854282379150e-01</leafValues></_>
        <_>
          <internalNodes>
            0 -1 390 -1.3807633658871055e-03</internalNodes>
          <leafValues>
            2.9467356204986572e-01 -1.5538804233074188e-01</leafValues></_>
        <_>
          <internalNodes>
            0 -1 152 3.6539696156978607e-02</internalNodes>
          <leafValues>
            -1.8519940972328186e-01 2.8148847818374634e-01</leafValues></_></weakClassifiers></_>
    <!-- stage 3 -->
    <_>
      <maxWeakCount>35</maxWeakCount>
      <stageThreshold>-9.8684298992156982e-01</stageThreshold>
      <weakClassifiers>
        <_>
          <internalNodes>
            0 -1 301 1.3499505817890167e-02</internalNodes>
          <leafValues>
            -3.3913839608430862e-02 5.8234930038452148e-01</leafValues></_>
        <_>
          <internalNodes>
            0 -1 48 7.0086275227367878e-03</internalNodes>
          <leafValues>
            -1.1437589675188065e-01 7.4276608228683472e-01</leafValues></_>
        <_>
          <internalNodes>
            0 -1 5 8.2775056362152100e-03</internalNodes>
          <leafValues>
            -2.2308948636054993e-01 3.5844510793685913e-01</leafValues></_>
        <_>
          <internalNodes>
            0 -1 50 -7.2428137063980103e-02</internalNodes>
          <leafValues>
            1.8236103653907776e-01 -3.8872766494750977e-01</leafValues></_>
        <_>
          <internalNodes>
            0 -1 91 1.0927438735961914e-02</internalNodes>
          <leafValues>
            -1.0911532491445541e-01 6.6574645042419434e-01</leafValues></_>
        <_>
          <internalNodes>
            0 -1 307 -5.8247325941920280e-03</internalNodes>
          <leafValues>
            2.9621452093124390e-01 -1.9603949785232544e-01</leafValues></_>
        <_>
          <internalNodes>
            0 -1 53 -5.4714698344469070e-03</internalNodes>
          <leafValues>
            3.2461816072463989e-01 -1.7489840090274811e-01</leafValues></_>
        <_>
          <internalNodes>
            0 -1 100 -2.0933295600116253e-03</internalNodes>
          <leafValues>
            3.1811004877090454e-01 -1.8355233967304230e-01</leafValues></_>
        <_>
          <internalNodes>
            0 -1 2 4.5022573322057724e-03</internalNodes>
          <leafValues>
            -1.9275699555873871e-01 2.8358390927314758e-01</leafValues></_>
        <_>
          <internalNodes>
            0 -1 140 -6.2069818377494812e-02</internalNodes>
          <leafValues>
            2.4943329393863678e-01 -2.5082007050514221e-01</leafValues></_>
        <_>
          <internalNodes>
            0 -1 357 3.0062948353588581e-03</internalNodes>
          <leafValues>
            -2.2164766490459442e-01 2.6839673519134521e-01</leafValues></_>
        <_>
          <internalNodes>
            0 -1 8 1.5513432212173939e-02</internalNodes>
          <leafValues>
            -7.1037963032722473e-02 6.6987174749374390e-01</leafValues></_>
        <_>
          <internalNodes>
            0 -1 227 -4.2888652533292770e-03</internalNodes>
          <leafValues>
            3.3544960618019104e-01 -1.6133120656013489e-01</leafValues></_>
        <_>
          <internalNodes>
            0 -1 158 1.3158181682229042e-03</internalNodes>
          <leafValues>
            -1.6761475801467896e-01 2.7955284714698792e-01</leafValues></_>
        <_>
          <internalNodes>
            0 -1 78 -1.1488946154713631e-02</internalNodes>
          <leafValues>
            1.8997462093830109e-01 -2.5292289257049561e-01</leafValues></_>
        <_>
          <internalNodes>
            0 -1 356 -2.4680802598595619e-03</internalNodes>
          <leafValues>
            3.8652968406677246e-01 -1.2688277661800385e-01</leafValues></_>
        <_>
          <internalNodes>
            0 -1 285 3.4768295008689165e-03</internalNodes>
          <leafValues>
            -1.2239540368318558e-01 3.7343901395797729e-01</leafValues></_>
        <_>
          <internalNodes>
            0 -1 109 -1.2198324315249920e-02</internalNodes>
          <leafValues>
            6.2094646692276001e-01 -7.5797840952873230e-02</leafValues></_>
        <_>
          <internalNodes>
            0 -1 202 -7.5553534552454948e-03</internalNodes>
          <leafValues>
            -5.4102802276611328e-01 9.6765384078025818e-02</leafValues></_>
        <_>
          <internalNodes>
            0 -1 482 -1.0045308619737625e-02</internalNodes>
          <leafValues>
            4.4277745485305786e-01 -1.0739982873201370e-01</leafValues></_>
        <_>
          <internalNodes>
            0 -1 443 5.4216855205595493e-03</internalNodes>
          <leafValues>
            8.1213831901550293e-02 -5.7717287540435791e-01</leafValues></_>
        <_>
          <internalNodes>
            0 -1 150 -5.0915777683258057e-04</internalNodes>
          <leafValues>
            2.5720021128654480e-01 -1.8244288861751556e-01</leafValues></_>
        <_>
          <internalNodes>
            0 -1 186 -1.0936433449387550e-02</internalNodes>
          <leafValues>
            -3.4799221158027649e-01 1.2838964164257050e-01</leafValues></_>
        <_>
          <internalNodes>
            0 -1 351 2.7206810191273689e-03</internalNodes>
          <leafValues>
            -2.1807780861854553e-01 2.0547562837600708e-01</leafValues></_>
        <_>
          <internalNodes>
            0 -1 108 -5.8514163829386234e-03</internalNodes>
          <leafValues>
            4.0611347556114197e-01 -1.2121082842350006e-01</leafValues></_>
        <_>
          <internalNodes>
            0 -1 130 -9.9209984764456749e-03</internalNodes>
          <leafValues>
            2.4534119665622711e-01 -1.7148856818675995e-01</leafValues></_>
        <_>
          <internalNodes>
            0 -1 435 -1.3019431382417679e-02</internalNodes>
          <leafValues>
            4.9441245198249817e-01 -8.5182607173919678e-02</leafValues></_>
        <_>
          <internalNodes>
            0 -1 363 1.9511152058839798e-03</internalNodes>
          <leafValues>
            -1.5629845857620239e-01 2.7550181746482849e-01</leafValues></_>
        <_>
          <internalNodes>
            0 -1 293 1.8802080303430557e-03</internalNodes>
          <leafValues>
            -2.1508814394474030e-01 1.9771318137645721e-01</leafValues></_>
        <_>
          <internalNodes>
            0 -1 282 4.7645740211009979e-02</internalNodes>
          <leafValues>
            4.8128947615623474e-02 -7.9395151138305664e-01</leafValues></_>
        <_>
          <internalNodes>
            0 -1 172 -4.1728857904672623e-03</internalNodes>
          <leafValues>
            -6.8097227811813354e-01 4.7343093901872635e-02</leafValues></_>
        <_>
          <internalNodes>
            0 -1 251 8.8190502719953656e-04</internalNodes>
          <leafValues>
            -2.3391716182231903e-01 1.6399861872196198e-01</leafValues></_>
        <_>
          <internalNodes>
            0 -1 425 -9.7116157412528992e-03</internalNodes>
          <leafValues>
            3.5652378201484680e-01 -1.0230582952499390e-01</leafValues></_>
        <_>
          <internalNodes>
            0 -1 114 -8.3541695494204760e-04</internalNodes>
          <leafValues>
            2.3978641629219055e-01 -1.5669618546962738e-01</leafValues></_>
        <_>
          <internalNodes>
            0 -1 128 1.4582192525267601e-03</internalNodes>
          <leafValues>
            -1.6974848508834839e-01 2.3942720890045166e-01</leafValues></_></weakClassifiers></_>
    <!-- stage 4 -->
    <_>
      <maxWeakCount>41</maxWeakCount>
      <stageThreshold>-9.9348598718643188e-01</stageThreshold>
      <weakClassifiers>
        <_>
          <internalNodes>
            0 -1 200 5.8568995445966721e-02</internalNodes>
          <leafValues>
            -2.3216995596885681e-01 5.1592355966567993e-01</leafValues></_>
        <_>
          <internalNodes>
            0 -1 44 9.8125841468572617e-03</internalNodes>
          <leafValues>
            -1.5090318024158478e-01 6.1245530843734741e-01</leafValues></_>
        <_>
          <internalNodes>
            0 -1 487 -5.9505542740225792e-03</internalNodes>
          <leafValues>
            3.9819949865341187e-01 -1.8231846392154694e-01</leafValues></_>
        <_>
          <internalNodes>
            0 -1 349 6.2707844190299511e-03</internalNodes>
          <leafValues>
            -2.6723110675811768e-01 1.9588363170623779e-01</leafValues></_>
        <_>
          <internalNodes>
            0 -1 432 9.1405138373374939e-03</internalNodes>
          <leafValues>
            -9.7468249499797821e-02 4.8198556900024414e-01</leafValues></_>
        <_>
          <internalNodes>
            0 -1 430 -2.1735311020165682e-03</internalNodes>
          <leafValues>
            2.7880498766899109e-01 -2.0134931802749634e-01</leafValues></_>
        <_>
          <internalNodes>
            0 -1 210 4.4034989550709724e-03</internalNodes>
          <leafValues>
            5.0786919891834259e-02 -8.5729819536209106e-01</leafValues></_>
        <_>
          <internalNodes>
            0 -1 39 -9.1761294752359390e-03</internalNodes>
          <leafValues>
            4.5572069287300110e-01 -1.0365547239780426e-01</leafValues></_>
        <_>
          <internalNodes>
            0 -1 198 -6.0336785390973091e-03</internalNodes>
          <leafValues>
            -5.9737873077392578e-01 9.1778621077537537e-02</leafValues></_>
        <_>
          <internalNodes>
            0 -1 59 4.9939807504415512e-03</internalNodes>
          <leafValues>
            -2.5602015852928162e-01 1.9996725022792816e-01</leafValues></_>
        <_>
          <internalNodes>
            0 -1 250 3.9678746834397316e-03</internalNodes>
          <leafValues>
            6.2379255890846252e-02 -7.1022933721542358e-01</leafValues></_>
        <_>
          <internalNodes>
            0 -1 151 -4.5823371037840843e-03</internalNodes>
          <leafValues>
            2.0338536798954010e-01 -2.0686401426792145e-01</leafValues></_>
        <_>
          <internalNodes>
            0 -1 71 1.8152810633182526e-02</internalNodes>
          <leafValues>
            -8.3081036806106567e-02 4.9473360180854797e-01</leafValues></_>
        <_>
          <internalNodes>
            0 -1 6 1.6126284375786781e-02</internalNodes>
          <leafValues>
            -1.2966713309288025e-01 3.3363562822341919e-01</leafValues></_>
        <_>
          <internalNodes>
            0 -1 208 1.0352771729230881e-02</internalNodes>
          <leafValues>
            -3.0563738942146301e-01 1.3975730538368225e-01</leafValues></_>
        <_>
          <internalNodes>
            0 -1 409 -8.8005494326353073e-03</internalNodes>
          <leafValues>
            5.3155732154846191e-01 -8.5818745195865631e-02</leafValues></_>
        <_>
          <internalNodes>
            0 -1 420 1.4377457555383444e-03</internalNodes>
          <leafValues>
            -1.3896374404430389e-01 3.4460175037384033e-01</leafValues></_>
        <_>
          <internalNodes>
            0 -1 69 -4.0269859135150909e-02</internalNodes>
          <leafValues>
            2.4682281911373138e-01 -1.7468270659446716e-01</leafValues></_>
        <_>
          <internalNodes>
            0 -1 126 -6.1332948505878448e-02</internalNodes>
          <leafValues>
            5.1535779237747192e-01 -7.9925008118152618e-02</leafValues></_>
        <_>
          <internalNodes>
            0 -1 228 -5.3852992132306099e-03</internalNodes>
          <leafValues>
            2.8978022933006287e-01 -1.2832932174205780e-01</leafValues></_>
        <_>
          <internalNodes>
            0 -1 441 6.0711298137903214e-03</internalNodes>
          <leafValues>
            7.1761950850486755e-02 -5.3810673952102661e-01</leafValues></_>
        <_>
          <internalNodes>
            0 -1 263 -1.5124168712645769e-03</internalNodes>
          <leafValues>
            2.7497592568397522e-01 -1.5159611403942108e-01</leafValues></_>
        <_>
          <internalNodes>
            0 -1 408 -5.8110263198614120e-03</internalNodes>
          <leafValues>
            3.4585878252983093e-01 -1.0928616672754288e-01</leafValues></_>
        <_>
          <internalNodes>
            0 -1 446 -3.6482401192188263e-03</internalNodes>
          <leafValues>
            2.8733894228935242e-01 -1.3950495421886444e-01</leafValues></_>
        <_>
          <internalNodes>
            0 -1 177 1.2576614972203970e-03</internalNodes>
          <leafValues>
            -2.0238102972507477e-01 1.8859797716140747e-01</leafValues></_>
        <_>
          <internalNodes>
            0 -1 197 2.3664031177759171e-03</internalNodes>
          <leafValues>
            4.9882616847753525e-02 -7.3165410757064819e-01</leafValues></_>
        <_>
          <internalNodes>
            0 -1 314 3.0135517008602619e-03</internalNodes>
          <leafValues>
            -1.4687168598175049e-01 2.6333758234977722e-01</leafValues></_>
        <_>
          <internalNodes>
            0 -1 344 1.1941920965909958e-03</internalNodes>
          <leafValues>
            -1.2062364071607590e-01 3.7286460399627686e-01</leafValues></_>
        <_>
          <internalNodes>
            0 -1 469 -6.9106165319681168e-03</internalNodes>
          <leafValues>
            2.3940323293209076e-01 -1.6210804879665375e-01</leafValues></_>
        <_>
          <internalNodes>
            0 -1 171 -5.2401861175894737e-03</internalNodes>
          <leafValues>
            -6.4381718635559082e-01 6.2424238771200180e-02</leafValues></_>
        <_>
          <internalNodes>
            0 -1 154 -3.4165050834417343e-02</internalNodes>
          <leafValues>
            1.2146829813718796e-01 -3.0231553316116333e-01</leafValues></_>
        <_>
          <internalNodes>
            0 -1 436 3.4036436118185520e-03</internalNodes>
          <leafValues>
            1.0995617508888245e-01 -3.4774628281593323e-01</leafValues></_>
        <_>
          <internalNodes>
            0 -1 47 8.6852867389097810e-04</internalNodes>
          <leafValues>
            -1.6117720305919647e-01 2.2203101217746735e-01</leafValues></_>
        <_>
          <internalNodes>
            0 -1 163 -1.7511075362563133e-02</internalNodes>
          <leafValues>
            -7.1905875205993652e-01 4.7608401626348495e-02</leafValues></_>
        <_>
          <internalNodes>
            0 -1 248 5.7872325181961060e-02</internalNodes>
          <leafValues>
            2.9628878459334373e-02 -8.8132530450820923e-01</leafValues></_>
        <_>
          <internalNodes>
            0 -1 323 3.9591016247868538e-03</internalNodes>
          <leafValues>
            3.5877279937267303e-02 -7.5094205141067505e-01</leafValues></_>
        <_>
          <internalNodes>
            0 -1 367 8.6525110527873039e-03</internalNodes>
          <leafValues>
            4.7092966735363007e-02 -6.2647533416748047e-01</leafValues></_>
        <_>
          <internalNodes>
            0 -1 312 1.5202526934444904e-02</internalNodes>
          <leafValues>
            3.5175848752260208e-02 -7.5416779518127441e-01</leafValues></_>
        <_>
          <internalNodes>
            0 -1 313 -9.2261866666376591e-04</internalNodes>
          <leafValues>
            2.5629556179046631e-01 -1.3678370416164398e-01</leafValues></_>
        <_>
          <internalNodes>
            0 -1 239 5.0005195662379265e-03</internalNodes>
          <leafValues>
            5.3682554513216019e-02 -6.7745810747146606e-01</leafValues></_>
        <_>
          <internalNodes>
            0 -1 147 -5.6713784579187632e-04</internalNodes>
          <leafValues>
            2.0551528036594391e-01 -1.7053256928920746e-01</leafValues></_></weakClassifiers></_>
    <!-- stage 5 -->
    <_>
      <maxWeakCount>42</maxWeakCount>
      <stageThreshold>-9.1804486513137817e-01</stageThreshold>
      <weakClassifiers>
        <_>
          <internalNodes>
            0 -1 45 1.2071227654814720e-02</internalNodes>
          <leafValues>
            1.4773979783058167e-01 7.1331828832626343e-01</leafValues></_>
        <_>
          <internalNodes>
            0 -1 302 2.0969858393073082e-02</internalNodes>
          <leafValues>
            -2.2992070019245148e-01 3.2108971476554871e-01</leafValues></_>
        <_>
          <internalNodes>
            0 -1 404 -4.2393067851662636e-03</internalNodes>
          <leafValues>
            3.0968302488327026e-01 -1.8173274397850037e-01</leafValues></_>
        <_>
          <internalNodes>
            0 -1 26 4.6710204333066940e-03</internalNodes>
          <leafValues>
            -1.9673135876655579e-01 2.7062830328941345e-01</leafValues></_>
        <_>
          <internalNodes>
            0 -1 37 -2.2522624582052231e-02</internalNodes>
          <leafValues>
            1.5677691996097565e-01 -3.2435029745101929e-01</leafValues></_>
        <_>
          <internalNodes>
            0 -1 416 1.0429868474602699e-02</internalNodes>
          <leafValues>
            -1.4786547422409058e-01 3.2056084275245667e-01</leafValues></_>
        <_>
          <internalNodes>
            0 -1 385 -1.7457574605941772e-02</internalNodes>
          <leafValues>
            5.6205201148986816e-01 -8.5322201251983643e-02</leafValues></_>
        <_>
          <internalNodes>
            0 -1 438 -5.8141397312283516e-03</internalNodes>
          <leafValues>
            3.8410791754722595e-01 -1.0554241389036179e-01</leafValues></_>
        <_>
          <internalNodes>
            0 -1 382 8.8660344481468201e-03</internalNodes>
          <leafValues>
            -1.3752558827400208e-01 3.2602536678314209e-01</leafValues></_>
        <_>
          <internalNodes>
            0 -1 51 -5.1830150187015533e-03</internalNodes>
          <leafValues>
            3.4861937165260315e-01 -1.1564519256353378e-01</leafValues></_>
        <_>
          <internalNodes>
            0 -1 86 -9.7313895821571350e-03</internalNodes>
          <leafValues>
            5.3906977176666260e-01 -6.9946743547916412e-02</leafValues></_>
        <_>
          <internalNodes>
            0 -1 348 4.7937722411006689e-04</internalNodes>
          <leafValues>
            -2.1667397022247314e-01 1.8818543851375580e-01</leafValues></_>
        <_>
          <internalNodes>
            0 -1 440 -3.4718834795057774e-03</internalNodes>
          <leafValues>
            -4.4407305121421814e-01 8.6468905210494995e-02</leafValues></_>
        <_>
          <internalNodes>
            0 -1 444 -1.3319648802280426e-02</internalNodes>
          <leafValues>
            -5.5840784311294556e-01 7.2131261229515076e-02</leafValues></_>
        <_>
          <internalNodes>
            0 -1 365 -8.6370977805927396e-04</internalNodes>
          <leafValues>
            2.2939683496952057e-01 -1.6357663273811340e-01</leafValues></_>
        <_>
          <internalNodes>
            0 -1 231 5.3047845140099525e-03</internalNodes>
          <leafValues>
            -2.2286967933177948e-01 1.7149566113948822e-01</leafValues></_>
        <_>
          <internalNodes>
            0 -1 317 3.2933990005403757e-03</internalNodes>
          <leafValues>
            -1.4844772219657898e-01 2.3063442111015320e-01</leafValues></_>
        <_>
          <internalNodes>
            0 -1 237 2.9145322740077972e-02</internalNodes>
          <leafValues>
            -1.2517724931240082e-01 2.8298333287239075e-01</leafValues></_>
        <_>
          <internalNodes>
            0 -1 355 5.7018557563424110e-03</internalNodes>
          <leafValues>
            -1.6184972226619720e-01 2.4009665846824646e-01</leafValues></_>
        <_>
          <internalNodes>
            0 -1 120 -2.0831206347793341e-03</internalNodes>
          <leafValues>
            2.5047180056571960e-01 -1.4180150628089905e-01</leafValues></_>
        <_>
          <internalNodes>
            0 -1 350 -5.0014391541481018e-02</internalNodes>
          <leafValues>
            -3.5993954539299011e-01 9.9763542413711548e-02</leafValues></_>
        <_>
          <internalNodes>
            0 -1 407 -7.7550671994686127e-04</internalNodes>
          <leafValues>
            2.2070564329624176e-01 -1.7651692032814026e-01</leafValues></_>
        <_>
          <internalNodes>
            0 -1 337 1.3758157379925251e-02</internalNodes>
          <leafValues>
            -1.0210053622722626e-01 4.6343359351158142e-01</leafValues></_>
        <_>
          <internalNodes>
            0 -1 250 5.4832454770803452e-03</internalNodes>
          <leafValues>
            4.3424058705568314e-02 -9.2241412401199341e-01</leafValues></_>
        <_>
          <internalNodes>
            0 -1 412 2.7986601926386356e-03</internalNodes>
          <leafValues>
            -1.3376942276954651e-01 2.5033807754516602e-01</leafValues></_>
        <_>
          <internalNodes>
            0 -1 387 -1.0570043232291937e-03</internalNodes>
          <leafValues>
            2.4907280504703522e-01 -1.7003473639488220e-01</leafValues></_>
        <_>
          <internalNodes>
            0 -1 242 1.9403456244617701e-03</internalNodes>
          <leafValues>
            5.7938363403081894e-02 -6.4960110187530518e-01</leafValues></_>
        <_>
          <internalNodes>
            0 -1 287 2.1461956202983856e-03</internalNodes>
          <leafValues>
            -2.8539031744003296e-01 1.1056623607873917e-01</leafValues></_>
        <_>
          <internalNodes>
            0 -1 20 1.0160431265830994e-02</internalNodes>
          <leafValues>
            -7.2121769189834595e-02 5.1221293210983276e-01</leafValues></_>
        <_>
          <internalNodes>
            0 -1 27 1.0491298511624336e-02</internalNodes>
          <leafValues>
            -1.2821480631828308e-01 3.1301310658454895e-01</leafValues></_>
        <_>
          <internalNodes>
            0 -1 377 -5.1911771297454834e-03</internalNodes>
          <leafValues>
            -8.9852780103683472e-01 3.5737827420234680e-02</leafValues></_>
        <_>
          <internalNodes>
            0 -1 113 -1.3977574184536934e-02</internalNodes>
          <leafValues>
            2.3266997933387756e-01 -1.5078502893447876e-01</leafValues></_>
        <_>
          <internalNodes>
            0 -1 240 5.2944328635931015e-03</internalNodes>
          <leafValues>
            4.7656692564487457e-02 -7.4094378948211670e-01</leafValues></_>
        <_>
          <internalNodes>
            0 -1 221 -1.7309393733739853e-03</internalNodes>
          <leafValues>
            2.6801833510398865e-01 -1.3427712023258209e-01</leafValues></_>
        <_>
          <internalNodes>
            0 -1 255 7.0569105446338654e-04</internalNodes>
          <leafValues>
            -1.7839361727237701e-01 2.9833108186721802e-01</leafValues></_>
        <_>
          <internalNodes>
            0 -1 57 -2.9079724103212357e-02</internalNodes>
          <leafValues>
            -3.8792708516120911e-01 8.1980675458908081e-02</leafValues></_>
        <_>
          <internalNodes>
            0 -1 144 1.9822660833597183e-02</internalNodes>
          <leafValues>
            -1.0295856744050980e-01 3.4130176901817322e-01</leafValues></_>
        <_>
          <internalNodes>
            0 -1 262 -2.5130938738584518e-03</internalNodes>
          <leafValues>
            3.1194609403610229e-01 -9.5889016985893250e-02</leafValues></_>
        <_>
          <internalNodes>
            0 -1 270 -4.4775702990591526e-03</internalNodes>
          <leafValues>
            -7.9003024101257324e-01 4.7183338552713394e-02</leafValues></_>
        <_>
          <internalNodes>
            0 -1 245 7.4208071455359459e-03</internalNodes>
          <leafValues>
            -4.4442242383956909e-01 6.6446468234062195e-02</leafValues></_>
        <_>
          <internalNodes>
            0 -1 474 1.2548919767141342e-02</internalNodes>
          <leafValues>
            -5.8436572551727295e-02 5.6518322229385376e-01</leafValues></_>
        <_>
          <internalNodes>
            0 -1 270 3.1065328512340784e-03</internalNodes>
          <leafValues>
            6.2846228480339050e-02 -5.2743923664093018e-01</leafValues></_></weakClassifiers></_>
    <!-- stage 6 -->
    <_>
      <maxWeakCount>46</maxWeakCount>
      <stageThreshold>-8.5965228080749512e-01</stageThreshold>
      <weakClassifiers>
        <_>
          <internalNodes>
            0 -1 404 -1.9938112236559391e-03</internalNodes>
          <leafValues>
            5.4133331775665283e-01 7.3333330452442169e-02</leafValues></_>
        <_>
          <internalNodes>
            0 -1 7 1.5546871349215508e-02</internalNodes>
          <leafValues>
            -8.7810255587100983e-02 5.1084250211715698e-01</leafValues></_>
        <_>
          <internalNodes>
            0 -1 64 1.1907992884516716e-02</internalNodes>
          <leafValues>
            -1.1423402279615402e-01 5.1208078861236572e-01</leafValues></_>
        <_>
          <internalNodes>
            0 -1 19 4.9856416881084442e-03</internalNodes>
          <leafValues>
            -2.4725295603275299e-01 2.2107964754104614e-01</leafValues></_>
        <_>
          <internalNodes>
            0 -1 73 -1.7272916436195374e-01</internalNodes>
          <leafValues>
            1.7027677595615387e-01 -2.8048658370971680e-01</leafValues></_>
        <_>
          <internalNodes>
            0 -1 329 5.6561199016869068e-03</internalNodes>
          <leafValues>
            -3.4090563654899597e-01 1.2629421055316925e-01</leafValues></_>
        <_>
          <internalNodes>
            0 -1 413 -1.1041670106351376e-02</internalNodes>
          <leafValues>
            5.9742450714111328e-01 -8.4748938679695129e-02</leafValues></_>
        <_>
          <internalNodes>
            0 -1 421 4.2870659381151199e-03</internalNodes>
          <leafValues>
            -1.2447747588157654e-01 3.3706599473953247e-01</leafValues></_>
        <_>
          <internalNodes>
            0 -1 165 -2.3886002600193024e-03</internalNodes>
          <leafValues>
            2.4344861507415771e-01 -1.6517913341522217e-01</leafValues></_>
        <_>
          <internalNodes>
            0 -1 42 -1.0036688297986984e-02</internalNodes>
          <leafValues>
            4.6156448125839233e-01 -8.7736502289772034e-02</leafValues></_>
        <_>
          <internalNodes>
            0 -1 445 -1.7277311999350786e-03</internalNodes>
          <leafValues>
            2.5829324126243591e-01 -1.4582635462284088e-01</leafValues></_>
        <_>
          <internalNodes>
            0 -1 70 -7.6019968837499619e-03</internalNodes>
          <leafValues>
            3.7269416451454163e-01 -1.0069067776203156e-01</leafValues></_>
        <_>
          <internalNodes>
            0 -1 36 -9.9571552127599716e-03</internalNodes>
          <leafValues>
            2.2759681940078735e-01 -1.6561372578144073e-01</leafValues></_>
        <_>
          <internalNodes>
            0 -1 465 -1.7256550490856171e-02</internalNodes>
          <leafValues>
            5.1465284824371338e-01 -6.9784104824066162e-02</leafValues></_>
        <_>
          <internalNodes>
            0 -1 206 7.2980597615242004e-03</internalNodes>
          <leafValues>
            5.0018038600683212e-02 -8.1731265783309937e-01</leafValues></_>
        <_>
          <internalNodes>
            0 -1 4 2.2211644798517227e-02</internalNodes>
          <leafValues>
            -2.3832285404205322e-01 1.4516694843769073e-01</leafValues></_>
        <_>
          <internalNodes>
            0 -1 181 1.7584164161235094e-03</internalNodes>
          <leafValues>
            -1.2717714905738831e-01 2.6745915412902832e-01</leafValues></_>
        <_>
          <internalNodes>
            0 -1 180 -1.6970736905932426e-03</internalNodes>
          <leafValues>
            3.5794708132743835e-01 -9.9473714828491211e-02</leafValues></_>
        <_>
          <internalNodes>
            0 -1 227 -4.1659204289317131e-03</internalNodes>
          <leafValues>
            2.6109427213668823e-01 -1.4809601008892059e-01</leafValues></_>
        <_>
          <internalNodes>
            0 -1 206 -8.2485172897577286e-03</internalNodes>
          <leafValues>
            -7.2676372528076172e-01 5.1133416593074799e-02</leafValues></_>
        <_>
          <internalNodes>
            0 -1 289 4.9793804064393044e-03</internalNodes>
          <leafValues>
            -1.9383017718791962e-01 1.6205704212188721e-01</leafValues></_>
        <_>
          <internalNodes>
            0 -1 160 6.1917263083159924e-03</internalNodes>
          <leafValues>
            -1.2562157213687897e-01 2.6294821500778198e-01</leafValues></_>
        <_>
          <internalNodes>
            0 -1 241 1.2430211529135704e-02</internalNodes>
          <leafValues>
            -2.0987628400325775e-01 1.6477976739406586e-01</leafValues></_>
        <_>
          <internalNodes>
            0 -1 360 -1.7799917608499527e-02</internalNodes>
          <leafValues>
            -4.4289946556091309e-01 8.4520339965820312e-02</leafValues></_>
        <_>
          <internalNodes>
            0 -1 398 -4.0380693972110748e-03</internalNodes>
          <leafValues>
            2.2621853649616241e-01 -1.5671741962432861e-01</leafValues></_>
        <_>
          <internalNodes>
            0 -1 315 -9.7654614364728332e-04</internalNodes>
          <leafValues>
            2.4981531500816345e-01 -1.3063029944896698e-01</leafValues></_>
        <_>
          <internalNodes>
            0 -1 252 -5.8072265237569809e-03</internalNodes>
          <leafValues>
            -4.4843673706054688e-01 7.2906002402305603e-02</leafValues></_>
        <_>
          <internalNodes>
            0 -1 464 -1.0421011596918106e-02</internalNodes>
          <leafValues>
            4.6780541539192200e-01 -7.0589430630207062e-02</leafValues></_>
        <_>
          <internalNodes>
            0 -1 432 -3.0876763630658388e-03</internalNodes>
          <leafValues>
            2.3830436170101166e-01 -1.3408593833446503e-01</leafValues></_>
        <_>
          <internalNodes>
            0 -1 406 1.0038438253104687e-02</internalNodes>
          <leafValues>
            4.7061625868082047e-02 -6.4938807487487793e-01</leafValues></_>
        <_>
          <internalNodes>
            0 -1 437 -4.3769716285169125e-03</internalNodes>
          <leafValues>
            -6.5222191810607910e-01 3.9915867149829865e-02</leafValues></_>
        <_>
          <internalNodes>
            0 -1 288 -1.0314412415027618e-02</internalNodes>
          <leafValues>
            -3.0914643406867981e-01 9.1618627309799194e-02</leafValues></_>
        <_>
          <internalNodes>
            0 -1 260 5.9424212668091059e-04</internalNodes>
          <leafValues>
            -1.3094124197959900e-01 2.2565081715583801e-01</leafValues></_>
        <_>
          <internalNodes>
            0 -1 226 -1.7974521033465862e-03</internalNodes>
          <leafValues>
            2.9471153020858765e-01 -1.3679885864257812e-01</leafValues></_>
        <_>
          <internalNodes>
            0 -1 77 -1.0548293590545654e-02</internalNodes>
          <leafValues>
            -6.8374794721603394e-01 4.7744434326887131e-02</leafValues></_>
        <_>
          <internalNodes>
            0 -1 81 -1.4150687493383884e-02</internalNodes>
          <leafValues>
            5.9846627712249756e-01 -5.9453319758176804e-02</leafValues></_>
        <_>
          <internalNodes>
            0 -1 22 -4.5823715627193451e-02</internalNodes>
          <leafValues>
            -5.9922558069229126e-01 5.6843668222427368e-02</leafValues></_>
        <_>
          <internalNodes>
            0 -1 49 -5.0404663197696209e-03</internalNodes>
          <leafValues>
            3.1425139307975769e-01 -9.9918432533740997e-02</leafValues></_>
        <_>
          <internalNodes>
            0 -1 211 -2.3542451672255993e-03</internalNodes>
          <leafValues>
            -6.6114342212677002e-01 4.7932118177413940e-02</leafValues></_>
        <_>
          <internalNodes>
            0 -1 183 -3.6677075549960136e-03</internalNodes>
          <leafValues>
            2.1018470823764801e-01 -1.4752468466758728e-01</leafValues></_>
        <_>
          <internalNodes>
            0 -1 265 -2.4535511620342731e-03</internalNodes>
          <leafValues>
            3.5868284106254578e-01 -8.5169747471809387e-02</leafValues></_>
        <_>
          <internalNodes>
            0 -1 384 5.2739342208951712e-04</internalNodes>
          <leafValues>
            -1.1979457736015320e-01 2.6877346634864807e-01</leafValues></_>
        <_>
          <internalNodes>
            0 -1 346 2.8945725411176682e-02</internalNodes>
          <leafValues>
            -2.1678678691387177e-01 1.7773245275020599e-01</leafValues></_>
        <_>
          <internalNodes>
            0 -1 450 -4.5432508923113346e-03</internalNodes>
          <leafValues>
            -5.0888717174530029e-01 5.6214656680822372e-02</leafValues></_>
        <_>
          <internalNodes>
            0 -1 393 -5.0190584734082222e-03</internalNodes>
          <leafValues>
            3.7355777621269226e-01 -8.5894979536533356e-02</leafValues></_>
        <_>
          <internalNodes>
            0 -1 393 1.4544955920428038e-03</internalNodes>
          <leafValues>
            -1.3446412980556488e-01 2.5040605664253235e-01</leafValues></_></weakClassifiers></_>
    <!-- stage 7 -->
    <_>
      <maxWeakCount>48</maxWeakCount>
      <stageThreshold>-8.1253916025161743e-01</stageThreshold>
      <weakClassifiers>
        <_>
          <internalNodes>
            0 -1 92 -5.5079525336623192e-03</internalNodes>
          <leafValues>
            6.7474746704101562e-01 1.3567250967025757e-01</leafValues></_>
        <_>
          <internalNodes>
            0 -1 489 -7.4709043838083744e-03</internalNodes>
          <leafValues>
            4.8022228479385376e-01 -1.2475550174713135e-01</leafValues></_>
        <_>
          <internalNodes>
            0 -1 343 3.7331790663301945e-03</internalNodes>
          <leafValues>
            -2.0584259927272797e-01 2.9339092969894409e-01</leafValues></_>
        <_>
          <internalNodes>
            0 -1 471 -5.2368589676916599e-03</internalNodes>
          <leafValues>
            4.5407557487487793e-01 -1.3561013340950012e-01</leafValues></_>
        <_>
          <internalNodes>
            0 -1 432 9.1802654787898064e-03</internalNodes>
          <leafValues>
            -1.2250679731369019e-01 4.4944569468498230e-01</leafValues></_>
        <_>
          <internalNodes>
            0 -1 204 5.2236981689929962e-02</internalNodes>
          <leafValues>
            -2.5207599997520447e-01 1.9459369778633118e-01</leafValues></_>
        <_>
          <internalNodes>
            0 -1 15 1.1420164257287979e-02</internalNodes>
          <leafValues>
            -1.5566073358058929e-01 2.5378623604774475e-01</leafValues></_>
        <_>
          <internalNodes>
            0 -1 273 2.4324138648808002e-03</internalNodes>
          <leafValues>
            -2.4173706769943237e-01 1.4161884784698486e-01</leafValues></_>
        <_>
          <internalNodes>
            0 -1 379 -6.4320256933569908e-04</internalNodes>
          <leafValues>
            1.8623399734497070e-01 -2.0514352619647980e-01</leafValues></_>
        <_>
          <internalNodes>
            0 -1 399 -1.8663626164197922e-02</internalNodes>
          <leafValues>
            -3.7358909845352173e-01 9.5466524362564087e-02</leafValues></_>
        <_>
          <internalNodes>
            0 -1 49 -2.7074078097939491e-03</internalNodes>
          <leafValues>
            2.6175960898399353e-01 -1.2607347965240479e-01</leafValues></_>
        <_>
          <internalNodes>
            0 -1 451 -4.4280765578150749e-03</internalNodes>
          <leafValues>
            2.7321305871009827e-01 -1.1627371609210968e-01</leafValues></_>
        <_>
          <internalNodes>
            0 -1 89 -3.7699576932936907e-03</internalNodes>
          <leafValues>
            -5.8722501993179321e-01 5.2770737558603287e-02</leafValues></_>
        <_>
          <internalNodes>
            0 -1 88 -1.8079571891576052e-03</internalNodes>
          <leafValues>
            1.1742284148931503e-01 -2.4028778076171875e-01</leafValues></_>
        <_>
          <internalNodes>
            0 -1 74 -9.7525138407945633e-03</internalNodes>
          <leafValues>
            3.4840607643127441e-01 -9.0675704181194305e-02</leafValues></_>
        <_>
          <internalNodes>
            0 -1 345 6.5446563530713320e-04</internalNodes>
          <leafValues>
            -1.1932609230279922e-01 2.6259306073188782e-01</leafValues></_>
        <_>
          <internalNodes>
            0 -1 219 -5.5432426743209362e-03</internalNodes>
          <leafValues>
            -5.6952673196792603e-01 5.4511778056621552e-02</leafValues></_>
        <_>
          <internalNodes>
            0 -1 381 -2.1780148148536682e-02</internalNodes>
          <leafValues>
            -6.6648101806640625e-01 3.7791360169649124e-02</leafValues></_>
        <_>
          <internalNodes>
            0 -1 388 -6.9924136623740196e-03</internalNodes>
          <leafValues>
            3.0820432305335999e-01 -1.2269458919763565e-01</leafValues></_>
        <_>
          <internalNodes>
            0 -1 418 4.0770816849544644e-04</internalNodes>
          <leafValues>
            -1.5867041051387787e-01 2.0440883934497833e-01</leafValues></_>
        <_>
          <internalNodes>
            0 -1 268 6.0908608138561249e-03</internalNodes>
          <leafValues>
            4.7994744032621384e-02 -6.0486429929733276e-01</leafValues></_>
        <_>
          <internalNodes>
            0 -1 167 1.6468664631247520e-02</internalNodes>
          <leafValues>
            3.6736961454153061e-02 -6.9873440265655518e-01</leafValues></_>
        <_>
          <internalNodes>
            0 -1 275 2.0212765783071518e-02</internalNodes>
          <leafValues>
            5.5995211005210876e-02 -4.5998042821884155e-01</leafValues></_>
        <_>
          <internalNodes>
            0 -1 428 -7.2092334739863873e-03</internalNodes>
          <leafValues>
            2.4669915437698364e-01 -1.1537518352270126e-01</leafValues></_>
        <_>
          <internalNodes>
            0 -1 234 -6.4863534644246101e-03</internalNodes>
          <leafValues>
            -5.0384986400604248e-01 5.6180391460657120e-02</leafValues></_>
        <_>
          <internalNodes>
            0 -1 191 1.1119232513010502e-02</internalNodes>
          <leafValues>
            -2.2086438536643982e-01 1.3083671033382416e-01</leafValues></_>
        <_>
          <internalNodes>
            0 -1 256 -1.1672519613057375e-03</internalNodes>
          <leafValues>
            2.6384204626083374e-01 -1.1333418637514114e-01</leafValues></_>
        <_>
          <internalNodes>
            0 -1 222 4.2279097251594067e-03</internalNodes>
          <leafValues>
            -1.5141749382019043e-01 2.3561739921569824e-01</leafValues></_>
        <_>
          <internalNodes>
            0 -1 155 -8.2807783037424088e-03</internalNodes>
          <leafValues>
            -5.5375790596008301e-01 5.2719272673130035e-02</leafValues></_>
        <_>
          <internalNodes>
            0 -1 360 -1.7623834311962128e-02</internalNodes>
          <leafValues>
            -3.7593957781791687e-01 6.9335736334323883e-02</leafValues></_>
        <_>
          <internalNodes>
            0 -1 407 -4.1447003604844213e-04</internalNodes>
          <leafValues>
            1.6149967908859253e-01 -1.8255040049552917e-01</leafValues></_>
        <_>
          <internalNodes>
            0 -1 479 -1.7423225566744804e-02</internalNodes>
          <leafValues>
            5.2560639381408691e-01 -5.4637897759675980e-02</leafValues></_>
        <_>
          <internalNodes>
            0 -1 320 -1.6613822430372238e-02</internalNodes>
          <leafValues>
            -3.8475891947746277e-01 7.9489104449748993e-02</leafValues></_>
        <_>
          <internalNodes>
            0 -1 63 -1.2180774938315153e-03</internalNodes>
          <leafValues>
            1.8031264841556549e-01 -1.6611236333847046e-01</leafValues></_>
        <_>
          <internalNodes>
            0 -1 56 4.5621305704116821e-02</internalNodes>
          <leafValues>
            -7.4517868459224701e-02 4.0344563126564026e-01</leafValues></_>
        <_>
          <internalNodes>
            0 -1 383 2.7847750112414360e-02</internalNodes>
          <leafValues>
            4.5483622699975967e-02 -7.3811006546020508e-01</leafValues></_>
        <_>
          <internalNodes>
            0 -1 405 -1.4231890439987183e-02</internalNodes>
          <leafValues>
            7.3395931720733643e-01 -4.3144516646862030e-02</leafValues></_>
        <_>
          <internalNodes>
            0 -1 233 -9.1781392693519592e-03</internalNodes>
          <leafValues>
            -7.8537291288375854e-01 4.4730033725500107e-02</leafValues></_>
        <_>
          <internalNodes>
            0 -1 429 5.1686880178749561e-03</internalNodes>
          <leafValues>
            3.5453684628009796e-02 -6.7606937885284424e-01</leafValues></_>
        <_>
          <internalNodes>
            0 -1 419 -5.0244359299540520e-03</internalNodes>
          <leafValues>
            3.2385957241058350e-01 -8.9115649461746216e-02</leafValues></_>
        <_>
          <internalNodes>
            0 -1 116 1.4922207221388817e-02</internalNodes>
          <leafValues>
            -3.8844592869281769e-02 6.8107461929321289e-01</leafValues></_>
        <_>
          <internalNodes>
            0 -1 134 8.4079895168542862e-04</internalNodes>
          <leafValues>
            -9.6896372735500336e-02 2.7836206555366516e-01</leafValues></_>
        <_>
          <internalNodes>
            0 -1 306 1.2417810037732124e-02</internalNodes>
          <leafValues>
            7.5248181819915771e-02 -4.1465258598327637e-01</leafValues></_>
        <_>
          <internalNodes>
            0 -1 132 -1.9371535163372755e-03</internalNodes>
          <leafValues>
            2.4354745447635651e-01 -1.1982635408639908e-01</leafValues></_>
        <_>
          <internalNodes>
            0 -1 168 6.0808602720499039e-03</internalNodes>
          <leafValues>
            3.9226960390806198e-02 -7.6904785633087158e-01</leafValues></_>
        <_>
          <internalNodes>
            0 -1 166 3.0104105826467276e-03</internalNodes>
          <leafValues>
            -1.0424512624740601e-01 3.2628038525581360e-01</leafValues></_>
        <_>
          <internalNodes>
            0 -1 94 -3.2854059245437384e-03</internalNodes>
          <leafValues>
            2.4351865053176880e-01 -1.1210150271654129e-01</leafValues></_>
        <_>
          <internalNodes>
            0 -1 116 -3.3518078271299601e-03</internalNodes>
          <leafValues>
            2.7476450800895691e-01 -1.1975501477718353e-01</leafValues></_></weakClassifiers></_>
    <!-- stage 8 -->
    <_>
      <maxWeakCount>48</maxWeakCount>
      <stageThreshold>-7.8675323724746704e-01</stageThreshold>
      <weakClassifiers>
        <_>
          <internalNodes>
            0 -1 10 1.3586368411779404e-02</internalNodes>
          <leafValues>
            2.2854562103748322e-01 8.1069958209991455e-01</leafValues></_>
        <_>
          <internalNodes>
            0 -1 328 6.1588231474161148e-03</internalNodes>
          <leafValues>
            -2.4034164845943451e-01 2.3667581379413605e-01</leafValues></_>
        <_>
          <internalNodes>
            0 -1 87 3.6244038492441177e-02</internalNodes>
          <leafValues>
            -1.2148805707693100e-01 4.6089771389961243e-01</leafValues></_>
        <_>
          <internalNodes>
            0 -1 21 1.8302893266081810e-02</internalNodes>
          <leafValues>
            -1.1076824367046356e-01 5.4906421899795532e-01</leafValues></_>
        <_>
          <internalNodes>
            0 -1 335 6.0795443132519722e-03</internalNodes>
          <leafValues>
            6.1589799821376801e-02 -5.9792345762252808e-01</leafValues></_>
        <_>
          <internalNodes>
            0 -1 212 -1.2809817679226398e-02</internalNodes>
          <leafValues>
            2.2769862413406372e-01 -1.9589991867542267e-01</leafValues></_>
        <_>
          <internalNodes>
            0 -1 18 -5.4667284712195396e-03</internalNodes>
          <leafValues>
            3.2783326506614685e-01 -1.3464429974555969e-01</leafValues></_>
        <_>
          <internalNodes>
            0 -1 375 1.9901399500668049e-03</internalNodes>
          <leafValues>
            -1.6887579858303070e-01 2.1852040290832520e-01</leafValues></_>
        <_>
          <internalNodes>
            0 -1 173 -6.2414519488811493e-03</internalNodes>
          <leafValues>
            -7.0028740167617798e-01 4.0244992822408676e-02</leafValues></_>
        <_>
          <internalNodes>
            0 -1 264 -3.4583366941660643e-03</internalNodes>
          <leafValues>
            2.2422128915786743e-01 -1.4843967556953430e-01</leafValues></_>
        <_>
          <internalNodes>
            0 -1 442 5.6957323104143143e-03</internalNodes>
          <leafValues>
            -8.1464566290378571e-02 3.9965322613716125e-01</leafValues></_>
        <_>
          <internalNodes>
            0 -1 294 1.3909732922911644e-02</internalNodes>
          <leafValues>
            -1.4371633529663086e-01 2.2490024566650391e-01</leafValues></_>
        <_>
          <internalNodes>
            0 -1 471 6.8516689352691174e-03</internalNodes>
          <leafValues>
            -6.0216851532459259e-02 4.8316064476966858e-01</leafValues></_>
        <_>
          <internalNodes>
            0 -1 336 -4.2383093386888504e-03</internalNodes>
          <leafValues>
            4.0095105767250061e-01 -7.5193628668785095e-02</leafValues></_>
        <_>
          <internalNodes>
            0 -1 304 -1.6675887629389763e-02</internalNodes>
          <leafValues>
            -5.1947832107543945e-01 7.1304418146610260e-02</leafValues></_>
        <_>
          <internalNodes>
            0 -1 408 -3.6808594595640898e-03</internalNodes>
          <leafValues>
            2.5053620338439941e-01 -1.3718117773532867e-01</leafValues></_>
        <_>
          <internalNodes>
            0 -1 387 -2.4391112383455038e-03</internalNodes>
          <leafValues>
            2.9546430706977844e-01 -1.2832899391651154e-01</leafValues></_>
        <_>
          <internalNodes>
            0 -1 170 -2.4638751521706581e-02</internalNodes>
          <leafValues>
            -7.9324424266815186e-01 4.8475261777639389e-02</leafValues></_>
        <_>
          <internalNodes>
            0 -1 25 5.1842974498867989e-03</internalNodes>
          <leafValues>
            -1.3331493735313416e-01 2.6656141877174377e-01</leafValues></_>
        <_>
          <internalNodes>
            0 -1 139 -3.2462764531373978e-02</internalNodes>
          <leafValues>
            2.9686510562896729e-01 -1.0816554725170135e-01</leafValues></_>
        <_>
          <internalNodes>
            0 -1 319 8.4508140571415424e-04</internalNodes>
          <leafValues>
            -1.2850175797939301e-01 2.2609923779964447e-01</leafValues></_>
        <_>
          <internalNodes>
            0 -1 417 4.2156646959483624e-03</internalNodes>
          <leafValues>
            4.5515533536672592e-02 -6.3094508647918701e-01</leafValues></_>
        <_>
          <internalNodes>
            0 -1 220 5.2033370593562722e-04</internalNodes>
          <leafValues>
            -1.8327216804027557e-01 1.4470233023166656e-01</leafValues></_>
        <_>
          <internalNodes>
            0 -1 164 9.6581345424056053e-03</internalNodes>
          <leafValues>
            7.3525704443454742e-02 -3.7898370623588562e-01</leafValues></_>
        <_>
          <internalNodes>
            0 -1 123 1.3315400108695030e-02</internalNodes>
          <leafValues>
            -3.5406343638896942e-02 7.8111445903778076e-01</leafValues></_>
        <_>
          <internalNodes>
            0 -1 199 2.1172527223825455e-02</internalNodes>
          <leafValues>
            5.0552256405353546e-02 -6.3889837265014648e-01</leafValues></_>
        <_>
          <internalNodes>
            0 -1 12 4.2141815647482872e-03</internalNodes>
          <leafValues>
            7.3204323649406433e-02 -3.3825165033340454e-01</leafValues></_>
        <_>
          <internalNodes>
            0 -1 105 6.3424720428884029e-03</internalNodes>
          <leafValues>
            -1.0384599864482880e-01 2.7607393264770508e-01</leafValues></_>
        <_>
          <internalNodes>
            0 -1 286 -9.3511771410703659e-03</internalNodes>
          <leafValues>
            4.8269742727279663e-01 -5.5702995508909225e-02</leafValues></_>
        <_>
          <internalNodes>
            0 -1 296 5.9390431270003319e-03</internalNodes>
          <leafValues>
            4.4503517448902130e-02 -8.0591809749603271e-01</leafValues></_>
        <_>
          <internalNodes>
            0 -1 142 4.4099092483520508e-02</internalNodes>
          <leafValues>
            -7.8357242047786713e-02 3.8752555847167969e-01</leafValues></_>
        <_>
          <internalNodes>
            0 -1 82 -2.6175784878432751e-03</internalNodes>
          <leafValues>
            1.8321287631988525e-01 -1.4005406200885773e-01</leafValues></_>
        <_>
          <internalNodes>
            0 -1 235 1.0367418639361858e-02</internalNodes>
          <leafValues>
            3.0544750392436981e-02 -8.2908928394317627e-01</leafValues></_>
        <_>
          <internalNodes>
            0 -1 103 3.0128352809697390e-03</internalNodes>
          <leafValues>
            -1.1655340343713760e-01 2.3319935798645020e-01</leafValues></_>
        <_>
          <internalNodes>
            0 -1 136 -2.4119149893522263e-03</internalNodes>
          <leafValues>
            3.4528803825378418e-01 -8.1697538495063782e-02</leafValues></_>
        <_>
          <internalNodes>
            0 -1 459 -3.7993977311998606e-03</internalNodes>
          <leafValues>
            -3.1525284051895142e-01 9.0338312089443207e-02</leafValues></_>
        <_>
          <internalNodes>
            0 -1 453 1.6644496470689774e-02</internalNodes>
          <leafValues>
            3.2073106616735458e-02 -7.6819241046905518e-01</leafValues></_>
        <_>
          <internalNodes>
            0 -1 330 5.2440096624195576e-03</internalNodes>
          <leafValues>
            3.0864588916301727e-02 -7.2069239616394043e-01</leafValues></_>
        <_>
          <internalNodes>
            0 -1 149 -1.2769859749823809e-03</internalNodes>
          <leafValues>
            2.3157221078872681e-01 -1.2574183940887451e-01</leafValues></_>
        <_>
          <internalNodes>
            0 -1 393 4.0730480104684830e-03</internalNodes>
          <leafValues>
            -8.4816753864288330e-02 3.1670057773590088e-01</leafValues></_>
        <_>
          <internalNodes>
            0 -1 393 -8.0543365329504013e-03</internalNodes>
          <leafValues>
            5.6686073541641235e-01 -5.4048508405685425e-02</leafValues></_>
        <_>
          <internalNodes>
            0 -1 34 7.4473712593317032e-03</internalNodes>
          <leafValues>
            -9.1059714555740356e-02 2.9880890250205994e-01</leafValues></_>
        <_>
          <internalNodes>
            0 -1 79 -6.5593700855970383e-03</internalNodes>
          <leafValues>
            -9.1411507129669189e-01 3.5750046372413635e-02</leafValues></_>
        <_>
          <internalNodes>
            0 -1 269 1.4797424897551537e-02</internalNodes>
          <leafValues>
            -1.9723501801490784e-01 1.5080411732196808e-01</leafValues></_>
        <_>
          <internalNodes>
            0 -1 28 -2.3449987173080444e-02</internalNodes>
          <leafValues>
            2.3795114457607269e-01 -1.2687943875789642e-01</leafValues></_>
        <_>
          <internalNodes>
            0 -1 121 9.4648305093869567e-04</internalNodes>
          <leafValues>
            1.1240991950035095e-01 -2.5413084030151367e-01</leafValues></_>
        <_>
          <internalNodes>
            0 -1 284 -7.5556000228971243e-04</internalNodes>
          <leafValues>
            2.0808537304401398e-01 -1.3294911384582520e-01</leafValues></_>
        <_>
          <internalNodes>
            0 -1 189 2.6737765874713659e-03</internalNodes>
          <leafValues>
            5.3356830030679703e-02 -5.7324928045272827e-01</leafValues></_></weakClassifiers></_>
    <!-- stage 9 -->
    <_>
      <maxWeakCount>53</maxWeakCount>
      <stageThreshold>-6.9507271051406860e-01</stageThreshold>
      <weakClassifiers>
        <_>
          <internalNodes>
            0 -1 48 4.9766735173761845e-03</internalNodes>
          <leafValues>
            1.7095483839511871e-01 6.3196635246276855e-01</leafValues></_>
        <_>
          <internalNodes>
            0 -1 373 2.5843742769211531e-03</internalNodes>
          <leafValues>
            -2.4298138916492462e-01 2.3778353631496429e-01</leafValues></_>
        <_>
          <internalNodes>
            0 -1 9 3.1494542956352234e-02</internalNodes>
          <leafValues>
            -6.7610368132591248e-02 7.1006900072097778e-01</leafValues></_>
        <_>
          <internalNodes>
            0 -1 470 1.1069444939494133e-02</internalNodes>
          <leafValues>
            -1.2035223096609116e-01 4.3377187848091125e-01</leafValues></_>
        <_>
          <internalNodes>
            0 -1 193 1.1388032138347626e-01</internalNodes>
          <leafValues>
            -2.7387836575508118e-01 1.4898309111595154e-01</leafValues></_>
        <_>
          <internalNodes>
            0 -1 106 7.6279886998236179e-03</internalNodes>
          <leafValues>
            -1.7740024626255035e-01 2.5580522418022156e-01</leafValues></_>
        <_>
          <internalNodes>
            0 -1 432 1.1091226711869240e-02</internalNodes>
          <leafValues>
            -9.3689456582069397e-02 4.1428175568580627e-01</leafValues></_>
        <_>
          <internalNodes>
            0 -1 112 -1.3769712299108505e-02</internalNodes>
          <leafValues>
            3.4965381026268005e-01 -1.0232647508382797e-01</leafValues></_>
        <_>
          <internalNodes>
            0 -1 40 -9.1403536498546600e-03</internalNodes>
          <leafValues>
            3.3386260271072388e-01 -9.9108934402465820e-02</leafValues></_>
        <_>
          <internalNodes>
            0 -1 477 -4.9597183242440224e-03</internalNodes>
          <leafValues>
            -6.9131809473037720e-01 4.8098701983690262e-02</leafValues></_>
        <_>
          <internalNodes>
            0 -1 295 -8.9133456349372864e-03</internalNodes>
          <leafValues>
            -3.7345057725906372e-01 7.6544351875782013e-02</leafValues></_>
        <_>
          <internalNodes>
            0 -1 333 1.7977315932512283e-02</internalNodes>
          <leafValues>
            6.9245934486389160e-02 -4.6827521920204163e-01</leafValues></_>
        <_>
          <internalNodes>
            0 -1 281 -1.5915654599666595e-02</internalNodes>
          <leafValues>
            2.3113985359668732e-01 -1.4371980726718903e-01</leafValues></_>
        <_>
          <internalNodes>
            0 -1 414 1.8516264390200377e-03</internalNodes>
          <leafValues>
            -9.7970008850097656e-02 2.9694595932960510e-01</leafValues></_>
        <_>
          <internalNodes>
            0 -1 386 4.1864850209094584e-04</internalNodes>
          <leafValues>
            -1.2604069709777832e-01 2.7205872535705566e-01</leafValues></_>
        <_>
          <internalNodes>
            0 -1 230 6.1338988598436117e-04</internalNodes>
          <leafValues>
            -1.2723191082477570e-01 2.1625190973281860e-01</leafValues></_>
        <_>
          <internalNodes>
            0 -1 253 8.4447003901004791e-03</internalNodes>
          <leafValues>
            5.1153846085071564e-02 -5.5526953935623169e-01</leafValues></_>
        <_>
          <internalNodes>
            0 -1 51 1.4124030247330666e-02</internalNodes>
          <leafValues>
            -5.5214110761880875e-02 5.0852429866790771e-01</leafValues></_>
        <_>
          <internalNodes>
            0 -1 476 5.2070692181587219e-03</internalNodes>
          <leafValues>
            5.2917487919330597e-02 -5.3956913948059082e-01</leafValues></_>
        <_>
          <internalNodes>
            0 -1 443 -6.0431659221649170e-03</internalNodes>
          <leafValues>
            -5.1006144285202026e-01 5.3524199873209000e-02</leafValues></_>
        <_>
          <internalNodes>
            0 -1 54 -4.4624158181250095e-03</internalNodes>
          <leafValues>
            2.4858035147190094e-01 -1.0544729977846146e-01</leafValues></_>
        <_>
          <internalNodes>
            0 -1 374 -5.7661086320877075e-03</internalNodes>
          <leafValues>
            -4.1159754991531372e-01 6.2427867203950882e-02</leafValues></_>
        <_>
          <internalNodes>
            0 -1 397 -3.8617707323282957e-03</internalNodes>
          <leafValues>
            2.6616197824478149e-01 -9.6379056572914124e-02</leafValues></_>
        <_>
          <internalNodes>
            0 -1 179 5.7346897665411234e-04</internalNodes>
          <leafValues>
            -1.3365684449672699e-01 2.0649640262126923e-01</leafValues></_>
        <_>
          <internalNodes>
            0 -1 214 9.1945269377902150e-04</internalNodes>
          <leafValues>
            -1.5180549025535583e-01 1.7789617180824280e-01</leafValues></_>
        <_>
          <internalNodes>
            0 -1 138 -3.7872260436415672e-03</internalNodes>
          <leafValues>
            2.4003274738788605e-01 -1.1154926568269730e-01</leafValues></_>
        <_>
          <internalNodes>
            0 -1 96 2.3666308261454105e-03</internalNodes>
          <leafValues>
            8.5451960563659668e-02 -3.2589891552925110e-01</leafValues></_>
        <_>
          <internalNodes>
            0 -1 434 4.6167569234967232e-03</internalNodes>
          <leafValues>
            -8.8790155947208405e-02 2.8704121708869934e-01</leafValues></_>
        <_>
          <internalNodes>
            0 -1 452 -3.6416836082935333e-03</internalNodes>
          <leafValues>
            2.4802589416503906e-01 -1.4803303778171539e-01</leafValues></_>
        <_>
          <internalNodes>
            0 -1 321 2.3699700832366943e-02</internalNodes>
          <leafValues>
            5.7489804923534393e-02 -4.9803316593170166e-01</leafValues></_>
        <_>
          <internalNodes>
            0 -1 271 -4.5230700634419918e-03</internalNodes>
          <leafValues>
            -4.8020255565643311e-01 5.1266588270664215e-02</leafValues></_>
        <_>
          <internalNodes>
            0 -1 119 -4.5652389526367188e-03</internalNodes>
          <leafValues>
            1.2962839007377625e-01 -1.9634616374969482e-01</leafValues></_>
        <_>
          <internalNodes>
            0 -1 463 -1.8004158511757851e-02</internalNodes>
          <leafValues>
            3.4420683979988098e-01 -7.9991377890110016e-02</leafValues></_>
        <_>
          <internalNodes>
            0 -1 38 -1.4738989993929863e-03</internalNodes>
          <leafValues>
            2.2580946981906891e-01 -1.1462295800447464e-01</leafValues></_>
        <_>
          <internalNodes>
            0 -1 401 -5.0372013356536627e-04</internalNodes>
          <leafValues>
            1.4978224039077759e-01 -1.8430967628955841e-01</leafValues></_>
        <_>
          <internalNodes>
            0 -1 267 -2.6096412912011147e-03</internalNodes>
          <leafValues>
            2.8917258977890015e-01 -9.9359095096588135e-02</leafValues></_>
        <_>
          <internalNodes>
            0 -1 305 5.1123392768204212e-03</internalNodes>
          <leafValues>
            -1.6063152253627777e-01 1.7831465601921082e-01</leafValues></_>
        <_>
          <internalNodes>
            0 -1 122 4.5649364590644836e-02</internalNodes>
          <leafValues>
            -6.2062676995992661e-02 4.6591290831565857e-01</leafValues></_>
        <_>
          <internalNodes>
            0 -1 153 -2.2093723528087139e-03</internalNodes>
          <leafValues>
            2.3634062707424164e-01 -1.2666924297809601e-01</leafValues></_>
        <_>
          <internalNodes>
            0 -1 162 -1.1023731902241707e-02</internalNodes>
          <leafValues>
            -8.8657081127166748e-01 3.1277656555175781e-02</leafValues></_>
        <_>
          <internalNodes>
            0 -1 178 2.7544844895601273e-02</internalNodes>
          <leafValues>
            4.7305963933467865e-02 -4.6949809789657593e-01</leafValues></_>
        <_>
          <internalNodes>
            0 -1 218 -1.0501702781766653e-03</internalNodes>
          <leafValues>
            2.1706645190715790e-01 -1.2542594969272614e-01</leafValues></_>
        <_>
          <internalNodes>
            0 -1 216 -1.9591143354773521e-03</internalNodes>
          <leafValues>
            2.1700188517570496e-01 -1.2815147638320923e-01</leafValues></_>
        <_>
          <internalNodes>
            0 -1 225 -5.0843921490013599e-03</internalNodes>
          <leafValues>
            -8.2590574026107788e-01 3.7607174366712570e-02</leafValues></_>
        <_>
          <internalNodes>
            0 -1 190 -9.6774678677320480e-03</internalNodes>
          <leafValues>
            -7.2853213548660278e-01 2.6499798521399498e-02</leafValues></_>
        <_>
          <internalNodes>
            0 -1 272 -1.4042332768440247e-02</internalNodes>
          <leafValues>
            3.0553296208381653e-01 -8.6612410843372345e-02</leafValues></_>
        <_>
          <internalNodes>
            0 -1 353 1.5644878149032593e-03</internalNodes>
          <leafValues>
            -1.3818672299385071e-01 2.1304842829704285e-01</leafValues></_>
        <_>
          <internalNodes>
            0 -1 338 -3.9864773862063885e-03</internalNodes>
          <leafValues>
            -6.3399958610534668e-01 4.1088059544563293e-02</leafValues></_>
        <_>
          <internalNodes>
            0 -1 297 5.5892830714583397e-03</internalNodes>
          <leafValues>
            3.6252573132514954e-02 -6.1743056774139404e-01</leafValues></_>
        <_>
          <internalNodes>
            0 -1 276 7.9464279115200043e-03</internalNodes>
          <leafValues>
            -1.0965448617935181e-01 2.5936815142631531e-01</leafValues></_>
        <_>
          <internalNodes>
            0 -1 359 3.5887104459106922e-03</internalNodes>
          <leafValues>
            -1.7351236939430237e-01 1.7601297795772552e-01</leafValues></_>
        <_>
          <internalNodes>
            0 -1 369 -1.4964509755373001e-02</internalNodes>
          <leafValues>
            -3.7318706512451172e-01 7.7169649302959442e-02</leafValues></_>
        <_>
          <internalNodes>
            0 -1 358 -2.8240259271115065e-03</internalNodes>
          <leafValues>
            2.8725400567054749e-01 -9.2177785933017731e-02</leafValues></_></weakClassifiers></_>
    <!-- stage 10 -->
    <_>
      <maxWeakCount>60</maxWeakCount>
      <stageThreshold>-8.2674193382263184e-01</stageThreshold>
      <weakClassifiers>
        <_>
          <internalNodes>
            0 -1 298 1.6746427863836288e-02</internalNodes>
          <leafValues>
            3.2597266137599945e-02 4.9685534834861755e-01</leafValues></_>
        <_>
          <internalNodes>
            0 -1 311 -4.3458631262183189e-03</internalNodes>
          <leafValues>
            2.3337417840957642e-01 -2.3959739506244659e-01</leafValues></_>
        <_>
          <internalNodes>
            0 -1 9 2.7419013902544975e-02</internalNodes>
          <leafValues>
            -7.6773591339588165e-02 6.2008619308471680e-01</leafValues></_>
        <_>
          <internalNodes>
            0 -1 76 -1.4638593420386314e-02</internalNodes>
          <leafValues>
            4.3711918592453003e-01 -1.4287804067134857e-01</leafValues></_>
        <_>
          <internalNodes>
            0 -1 481 -8.3808824419975281e-03</internalNodes>
          <leafValues>
            4.3031266331672668e-01 -5.9266965836286545e-02</leafValues></_>
        <_>
          <internalNodes>
            0 -1 33 1.7366841435432434e-02</internalNodes>
          <leafValues>
            -8.6183294653892517e-02 4.2479223012924194e-01</leafValues></_>
        <_>
          <internalNodes>
            0 -1 439 -1.0384196415543556e-02</internalNodes>
          <leafValues>
            4.4049334526062012e-01 -6.8308122456073761e-02</leafValues></_>
        <_>
          <internalNodes>
            0 -1 439 1.2896690517663956e-02</internalNodes>
          <leafValues>
            -6.0044005513191223e-02 6.3120418787002563e-01</leafValues></_>
        <_>
          <internalNodes>
            0 -1 454 5.7001016102731228e-04</internalNodes>
          <leafValues>
            -9.6690393984317780e-02 2.7691763639450073e-01</leafValues></_>
        <_>
          <internalNodes>
            0 -1 394 3.5230859648436308e-03</internalNodes>
          <leafValues>
            -9.6774756908416748e-02 2.9870495200157166e-01</leafValues></_>
        <_>
          <internalNodes>
            0 -1 145 1.7977768182754517e-01</internalNodes>
          <leafValues>
            -1.6795043647289276e-01 1.7468737065792084e-01</leafValues></_>
        <_>
          <internalNodes>
            0 -1 467 -8.2313409075140953e-03</internalNodes>
          <leafValues>
            3.8149896264076233e-01 -7.9821459949016571e-02</leafValues></_>
        <_>
          <internalNodes>
            0 -1 449 -4.8910658806562424e-03</internalNodes>
          <leafValues>
            -5.2673566341400146e-01 5.4669529199600220e-02</leafValues></_>
        <_>
          <internalNodes>
            0 -1 308 7.4183814227581024e-02</internalNodes>
          <leafValues>
            3.9128210395574570e-02 -6.3763564825057983e-01</leafValues></_>
        <_>
          <internalNodes>
            0 -1 354 2.2179437801241875e-02</internalNodes>
          <leafValues>
            -1.0329068452119827e-01 2.6817804574966431e-01</leafValues></_>
        <_>
          <internalNodes>
            0 -1 148 -9.7810057923197746e-04</internalNodes>
          <leafValues>
            2.6155000925064087e-01 -9.7298637032508850e-02</leafValues></_>
        <_>
          <internalNodes>
            0 -1 117 -4.6639181673526764e-03</internalNodes>
          <leafValues>
            1.1713877320289612e-01 -2.4050991237163544e-01</leafValues></_>
        <_>
          <internalNodes>
            0 -1 157 1.4946819283068180e-03</internalNodes>
          <leafValues>
            -1.1531223356723785e-01 2.2303493320941925e-01</leafValues></_>
        <_>
          <internalNodes>
            0 -1 85 8.2905516028404236e-03</internalNodes>
          <leafValues>
            -4.4476583600044250e-02 5.3860235214233398e-01</leafValues></_>
        <_>
          <internalNodes>
            0 -1 176 1.1641522869467735e-03</internalNodes>
          <leafValues>
            -1.4704778790473938e-01 1.7541956901550293e-01</leafValues></_>
        <_>
          <internalNodes>
            0 -1 174 -1.4609508216381073e-02</internalNodes>
          <leafValues>
            -5.1376837491989136e-01 5.7552155107259750e-02</leafValues></_>
        <_>
          <internalNodes>
            0 -1 410 9.0098334476351738e-04</internalNodes>
          <leafValues>
            -9.5967471599578857e-02 2.6348656415939331e-01</leafValues></_>
        <_>
          <internalNodes>
            0 -1 372 -8.2560572773218155e-03</internalNodes>
          <leafValues>
            -3.2850837707519531e-01 7.9537577927112579e-02</leafValues></_>
        <_>
          <internalNodes>
            0 -1 192 9.0734355151653290e-02</internalNodes>
          <leafValues>
            6.5705187618732452e-02 -4.5810979604721069e-01</leafValues></_>
        <_>
          <internalNodes>
            0 -1 46 5.6800590828061104e-03</internalNodes>
          <leafValues>
            3.8509577512741089e-02 -6.6413944959640503e-01</leafValues></_>
        <_>
          <internalNodes>
            0 -1 264 -2.2257268428802490e-03</internalNodes>
          <leafValues>
            1.6532251238822937e-01 -1.6073489189147949e-01</leafValues></_>
        <_>
          <internalNodes>
            0 -1 35 -5.2414285019040108e-03</internalNodes>
          <leafValues>
            -4.4443711638450623e-01 5.7298883795738220e-02</leafValues></_>
        <_>
          <internalNodes>
            0 -1 395 9.4405058771371841e-03</internalNodes>
          <leafValues>
            -4.5189280062913895e-02 6.5779036283493042e-01</leafValues></_>
        <_>
          <internalNodes>
            0 -1 472 4.5542838051915169e-03</internalNodes>
          <leafValues>
            6.3892468810081482e-02 -4.5068487524986267e-01</leafValues></_>
        <_>
          <internalNodes>
            0 -1 61 3.2020686194300652e-03</internalNodes>
          <leafValues>
            -5.8209825307130814e-02 4.4418349862098694e-01</leafValues></_>
        <_>
          <internalNodes>
            0 -1 0 -2.5819855928421021e-01</internalNodes>
          <leafValues>
            7.4171090126037598e-01 -3.1733419746160507e-02</leafValues></_>
        <_>
          <internalNodes>
            0 -1 62 4.3271295726299286e-02</internalNodes>
          <leafValues>
            -4.5305963605642319e-02 5.2030068635940552e-01</leafValues></_>
        <_>
          <internalNodes>
            0 -1 254 4.8258234746754169e-03</internalNodes>
          <leafValues>
            -1.4690098166465759e-01 1.6757869720458984e-01</leafValues></_>
        <_>
          <internalNodes>
            0 -1 313 -1.8948039505630732e-03</internalNodes>
          <leafValues>
            2.8695371747016907e-01 -8.8939592242240906e-02</leafValues></_>
        <_>
          <internalNodes>
            0 -1 315 -9.7248167730867863e-04</internalNodes>
          <leafValues>
            2.4195110797882080e-01 -1.4229893684387207e-01</leafValues></_>
        <_>
          <internalNodes>
            0 -1 3 -7.0970705710351467e-03</internalNodes>
          <leafValues>
            -3.0217552185058594e-01 8.3750419318675995e-02</leafValues></_>
        <_>
          <internalNodes>
            0 -1 324 -1.3726858422160149e-02</internalNodes>
          <leafValues>
            3.5479816794395447e-01 -7.1548253297805786e-02</leafValues></_>
        <_>
          <internalNodes>
            0 -1 325 -3.2650463283061981e-02</internalNodes>
          <leafValues>
            -6.3470560312271118e-01 4.8279210925102234e-02</leafValues></_>
        <_>
          <internalNodes>
            0 -1 339 2.6532771065831184e-02</internalNodes>
          <leafValues>
            -6.4575999975204468e-02 4.1063919663429260e-01</leafValues></_>
        <_>
          <internalNodes>
            0 -1 243 6.4104504417628050e-04</internalNodes>
          <leafValues>
            -1.1061759293079376e-01 2.1717247366905212e-01</leafValues></_>
        <_>
          <internalNodes>
            0 -1 309 1.1564022861421108e-02</internalNodes>
          <leafValues>
            3.6395877599716187e-02 -7.5595873594284058e-01</leafValues></_>
        <_>
          <internalNodes>
            0 -1 424 -4.7460137866437435e-03</internalNodes>
          <leafValues>
            -8.3126634359359741e-01 2.2747877985239029e-02</leafValues></_>
        <_>
          <internalNodes>
            0 -1 131 -5.2147376118227839e-04</internalNodes>
          <leafValues>
            1.6687722504138947e-01 -1.3686482608318329e-01</leafValues></_>
        <_>
          <internalNodes>
            0 -1 368 4.0246588177978992e-03</internalNodes>
          <leafValues>
            -7.3030121624469757e-02 3.0600559711456299e-01</leafValues></_>
        <_>
          <internalNodes>
            0 -1 391 3.8670492358505726e-03</internalNodes>
          <leafValues>
            -9.5285788178443909e-02 2.3785765469074249e-01</leafValues></_>
        <_>
          <internalNodes>
            0 -1 261 1.0443015024065971e-02</internalNodes>
          <leafValues>
            4.1899975389242172e-02 -5.8821308612823486e-01</leafValues></_>
        <_>
          <internalNodes>
            0 -1 459 -7.8241545706987381e-03</internalNodes>
          <leafValues>
            -4.9766802787780762e-01 4.1963797062635422e-02</leafValues></_>
        <_>
          <internalNodes>
            0 -1 490 3.6939973942935467e-03</internalNodes>
          <leafValues>
            -1.0490630567073822e-01 2.1530486643314362e-01</leafValues></_>
        <_>
          <internalNodes>
            0 -1 290 3.4695878624916077e-02</internalNodes>
          <leafValues>
            -9.9307931959629059e-02 2.5338515639305115e-01</leafValues></_>
        <_>
          <internalNodes>
            0 -1 266 1.6128208953887224e-03</internalNodes>
          <leafValues>
            -2.1258188784122467e-01 1.3441492617130280e-01</leafValues></_>
        <_>
          <internalNodes>
            0 -1 371 -8.0413557589054108e-03</internalNodes>
          <leafValues>
            5.1673394441604614e-01 -5.3022842854261398e-02</leafValues></_>
        <_>
          <internalNodes>
            0 -1 260 7.3468859773129225e-04</internalNodes>
          <leafValues>
            -1.0528754442930222e-01 2.1703745424747467e-01</leafValues></_>
        <_>
          <internalNodes>
            0 -1 377 -2.2485600784420967e-03</internalNodes>
          <leafValues>
            -3.8782829046249390e-01 6.7118205130100250e-02</leafValues></_>
        <_>
          <internalNodes>
            0 -1 278 -6.6135078668594360e-02</internalNodes>
          <leafValues>
            -4.4242972135543823e-01 5.4310530424118042e-02</leafValues></_>
        <_>
          <internalNodes>
            0 -1 280 1.3887677341699600e-03</internalNodes>
          <leafValues>
            -1.1867597699165344e-01 2.0509444177150726e-01</leafValues></_>
        <_>
          <internalNodes>
            0 -1 104 -2.0925835706293583e-03</internalNodes>
          <leafValues>
            1.7294867336750031e-01 -1.3568490743637085e-01</leafValues></_>
        <_>
          <internalNodes>
            0 -1 318 -7.9119252040982246e-04</internalNodes>
          <leafValues>
            2.2792382538318634e-01 -1.0451698303222656e-01</leafValues></_>
        <_>
          <internalNodes>
            0 -1 60 -1.9141839584335685e-04</internalNodes>
          <leafValues>
            -1.9005092978477478e-01 1.3929612934589386e-01</leafValues></_>
        <_>
          <internalNodes>
            0 -1 135 -1.1645376216620207e-03</internalNodes>
          <leafValues>
            2.5776621699333191e-01 -9.0680859982967377e-02</leafValues></_>
        <_>
          <internalNodes>
            0 -1 124 2.6097825169563293e-01</internalNodes>
          <leafValues>
            -5.7763099670410156e-02 3.8524469733238220e-01</leafValues></_></weakClassifiers></_>
    <!-- stage 11 -->
    <_>
      <maxWeakCount>58</maxWeakCount>
      <stageThreshold>-7.2367757558822632e-01</stageThreshold>
      <weakClassifiers>
        <_>
          <internalNodes>
            0 -1 90 -3.5268899518996477e-03</internalNodes>
          <leafValues>
            5.7431840896606445e-01 1.5802943706512451e-01</leafValues></_>
        <_>
          <internalNodes>
            0 -1 468 1.7173785716295242e-02</internalNodes>
          <leafValues>
            -6.7019626498222351e-02 5.0398814678192139e-01</leafValues></_>
        <_>
          <internalNodes>
            0 -1 432 7.6055489480495453e-03</internalNodes>
          <leafValues>
            -1.6482771933078766e-01 3.3191493153572083e-01</leafValues></_>
        <_>
          <internalNodes>
            0 -1 213 3.0167002230882645e-02</internalNodes>
          <leafValues>
            -2.4047812819480896e-01 1.7523460090160370e-01</leafValues></_>
        <_>
          <internalNodes>
            0 -1 457 -3.4270128235220909e-03</internalNodes>
          <leafValues>
            2.1834444999694824e-01 -1.5259186923503876e-01</leafValues></_>
        <_>
          <internalNodes>
            0 -1 111 1.1118529364466667e-02</internalNodes>
          <leafValues>
            -1.0336308181285858e-01 3.4228548407554626e-01</leafValues></_>
        <_>
          <internalNodes>
            0 -1 411 -4.0508266538381577e-03</internalNodes>
          <leafValues>
            2.9659330844879150e-01 -1.1748769879341125e-01</leafValues></_>
        <_>
          <internalNodes>
            0 -1 401 -3.4433682449162006e-03</internalNodes>
          <leafValues>
            2.5685706734657288e-01 -1.1587352305650711e-01</leafValues></_>
        <_>
          <internalNodes>
            0 -1 244 1.0060007683932781e-02</internalNodes>
          <leafValues>
            -3.0972325801849365e-01 9.9398359656333923e-02</leafValues></_>
        <_>
          <internalNodes>
            0 -1 415 -6.9017517380416393e-03</internalNodes>
          <leafValues>
            3.8361185789108276e-01 -7.4474580585956573e-02</leafValues></_>
        <_>
          <internalNodes>
            0 -1 17 9.0404152870178223e-03</internalNodes>
          <leafValues>
            -7.3981307446956635e-02 3.7528613209724426e-01</leafValues></_>
        <_>
          <internalNodes>
            0 -1 423 -1.9855394493788481e-03</internalNodes>
          <leafValues>
            -3.0641379952430725e-01 8.7878830730915070e-02</leafValues></_>
        <_>
          <internalNodes>
            0 -1 431 -1.1824166867882013e-03</internalNodes>
          <leafValues>
            1.9350397586822510e-01 -1.4467456936836243e-01</leafValues></_>
        <_>
          <internalNodes>
            0 -1 127 -8.2883298397064209e-02</internalNodes>
          <leafValues>
            3.8399091362953186e-01 -6.5032131969928741e-02</leafValues></_>
        <_>
          <internalNodes>
            0 -1 72 -5.8648396283388138e-02</internalNodes>
          <leafValues>
            1.4872486889362335e-01 -1.8898829817771912e-01</leafValues></_>
        <_>
          <internalNodes>
            0 -1 400 -2.6585063897073269e-03</internalNodes>
          <leafValues>
            2.2154718637466431e-01 -1.2709164619445801e-01</leafValues></_>
        <_>
          <internalNodes>
            0 -1 65 2.2776685655117035e-03</internalNodes>
          <leafValues>
            -1.8623593449592590e-01 1.5632532536983490e-01</leafValues></_>
        <_>
          <internalNodes>
            0 -1 184 -2.0737266167998314e-03</internalNodes>
          <leafValues>
            2.4090044200420380e-01 -1.1956461519002914e-01</leafValues></_>
        <_>
          <internalNodes>
            0 -1 195 -3.5742963664233685e-03</internalNodes>
          <leafValues>
            -8.5174030065536499e-01 3.3336982131004333e-02</leafValues></_>
        <_>
          <internalNodes>
            0 -1 147 -1.0023895883932710e-03</internalNodes>
          <leafValues>
            2.1215926110744476e-01 -1.3029193878173828e-01</leafValues></_>
        <_>
          <internalNodes>
            0 -1 462 3.6150161176919937e-03</internalNodes>
          <leafValues>
            6.4626619219779968e-02 -3.7899076938629150e-01</leafValues></_>
        <_>
          <internalNodes>
            0 -1 389 -1.1453757062554359e-02</internalNodes>
          <leafValues>
            5.3255516290664673e-01 -4.9081034958362579e-02</leafValues></_>
        <_>
          <internalNodes>
            0 -1 361 4.9083784222602844e-02</internalNodes>
          <leafValues>
            5.9106130152940750e-02 -4.5072183012962341e-01</leafValues></_>
        <_>
          <internalNodes>
            0 -1 461 9.5566408708691597e-03</internalNodes>
          <leafValues>
            6.0451377183198929e-02 -4.2128613591194153e-01</leafValues></_>
        <_>
          <internalNodes>
            0 -1 475 1.8211781978607178e-02</internalNodes>
          <leafValues>
            -3.1342040747404099e-02 9.2926901578903198e-01</leafValues></_>
        <_>
          <internalNodes>
            0 -1 491 7.5253061950206757e-03</internalNodes>
          <leafValues>
            -4.3367851525545120e-02 5.6151860952377319e-01</leafValues></_>
        <_>
          <internalNodes>
            0 -1 483 -5.8281719684600830e-03</internalNodes>
          <leafValues>
            2.6410114765167236e-01 -1.0212189704179764e-01</leafValues></_>
        <_>
          <internalNodes>
            0 -1 16 2.8163313400000334e-03</internalNodes>
          <leafValues>
            -1.9271647930145264e-01 1.5294477343559265e-01</leafValues></_>
        <_>
          <internalNodes>
            0 -1 115 -2.2678240202367306e-03</internalNodes>
          <leafValues>
            2.7721852064132690e-01 -9.4149962067604065e-02</leafValues></_>
        <_>
          <internalNodes>
            0 -1 188 4.4884932041168213e-01</internalNodes>
          <leafValues>
            -4.0774267166852951e-02 7.0569109916687012e-01</leafValues></_>
        <_>
          <internalNodes>
            0 -1 175 -4.9091153778135777e-03</internalNodes>
          <leafValues>
            -8.9384043216705322e-01 3.9031397551298141e-02</leafValues></_>
        <_>
          <internalNodes>
            0 -1 257 -8.5727795958518982e-03</internalNodes>
          <leafValues>
            -4.6191594004631042e-01 4.2969007045030594e-02</leafValues></_>
        <_>
          <internalNodes>
            0 -1 58 -1.9106606021523476e-02</internalNodes>
          <leafValues>
            2.4999143183231354e-01 -1.0679259151220322e-01</leafValues></_>
        <_>
          <internalNodes>
            0 -1 370 -6.2429187819361687e-03</internalNodes>
          <leafValues>
            -7.4389368295669556e-01 3.8676206022500992e-02</leafValues></_>
        <_>
          <internalNodes>
            0 -1 342 -2.6520732790231705e-03</internalNodes>
          <leafValues>
            3.2516312599182129e-01 -8.7485991418361664e-02</leafValues></_>
        <_>
          <internalNodes>
            0 -1 187 -3.7820732686668634e-03</internalNodes>
          <leafValues>
            -3.4851890802383423e-01 7.8280635178089142e-02</leafValues></_>
        <_>
          <internalNodes>
            0 -1 405 -1.7545647919178009e-02</internalNodes>
          <leafValues>
            9.4776195287704468e-01 -2.9125561937689781e-02</leafValues></_>
        <_>
          <internalNodes>
            0 -1 97 -2.8380714356899261e-02</internalNodes>
          <leafValues>
            6.2254863977432251e-01 -3.0722733587026596e-02</leafValues></_>
        <_>
          <internalNodes>
            0 -1 414 1.2484135804697871e-03</internalNodes>
          <leafValues>
            -1.0908273607492447e-01 2.1431960165500641e-01</leafValues></_>
        <_>
          <internalNodes>
            0 -1 455 -4.2558237910270691e-03</internalNodes>
          <leafValues>
            3.1357997655868530e-01 -7.5500182807445526e-02</leafValues></_>
        <_>
          <internalNodes>
            0 -1 23 -1.2874931562691927e-03</internalNodes>
          <leafValues>
            -3.0397760868072510e-01 8.0419488251209259e-02</leafValues></_>
        <_>
          <internalNodes>
            0 -1 274 1.1742934584617615e-02</internalNodes>
          <leafValues>
            4.0587015450000763e-02 -5.7745248079299927e-01</leafValues></_>
        <_>
          <internalNodes>
            0 -1 392 3.5803411155939102e-02</internalNodes>
          <leafValues>
            2.2444423288106918e-02 -8.0781584978103638e-01</leafValues></_>
        <_>
          <internalNodes>
            0 -1 67 8.1795081496238708e-03</internalNodes>
          <leafValues>
            -1.2688271701335907e-01 1.8450558185577393e-01</leafValues></_>
        <_>
          <internalNodes>
            0 -1 101 -1.2140591442584991e-01</internalNodes>
          <leafValues>
            -6.3650566339492798e-01 3.8576181977987289e-02</leafValues></_>
        <_>
          <internalNodes>
            0 -1 207 -8.2192365080118179e-03</internalNodes>
          <leafValues>
            -5.8698272705078125e-01 3.5686202347278595e-02</leafValues></_>
        <_>
          <internalNodes>
            0 -1 383 2.6005391031503677e-02</internalNodes>
          <leafValues>
            3.4827239811420441e-02 -6.0013562440872192e-01</leafValues></_>
        <_>
          <internalNodes>
            0 -1 194 -1.8144558416679502e-03</internalNodes>
          <leafValues>
            1.6060495376586914e-01 -1.4356426894664764e-01</leafValues></_>
        <_>
          <internalNodes>
            0 -1 133 2.8025889769196510e-03</internalNodes>
          <leafValues>
            -1.3128809630870819e-01 2.0439149439334869e-01</leafValues></_>
        <_>
          <internalNodes>
            0 -1 422 -1.1996494606137276e-02</internalNodes>
          <leafValues>
            4.1895100474357605e-01 -5.6318074464797974e-02</leafValues></_>
        <_>
          <internalNodes>
            0 -1 364 9.9053583107888699e-04</internalNodes>
          <leafValues>
            -9.1313190758228302e-02 2.4389906227588654e-01</leafValues></_>
        <_>
          <internalNodes>
            0 -1 185 -9.3828598037362099e-03</internalNodes>
          <leafValues>
            -2.9097449779510498e-01 7.8600205481052399e-02</leafValues></_>
        <_>
          <internalNodes>
            0 -1 427 7.2254170663654804e-03</internalNodes>
          <leafValues>
            -8.2489371299743652e-02 2.8701403737068176e-01</leafValues></_>
        <_>
          <internalNodes>
            0 -1 445 -1.2892934028059244e-03</internalNodes>
          <leafValues>
            2.0971395075321198e-01 -1.3846154510974884e-01</leafValues></_>
        <_>
          <internalNodes>
            0 -1 209 -1.8293380737304688e-02</internalNodes>
          <leafValues>
            1.2711654603481293e-01 -1.9429609179496765e-01</leafValues></_>
        <_>
          <internalNodes>
            0 -1 146 4.3023121543228626e-03</internalNodes>
          <leafValues>
            -1.0356941819190979e-01 2.2854232788085938e-01</leafValues></_>
        <_>
          <internalNodes>
            0 -1 341 4.1650656610727310e-02</internalNodes>
          <leafValues>
            3.9243333041667938e-02 -6.7803531885147095e-01</leafValues></_>
        <_>
          <internalNodes>
            0 -1 80 -3.3203563652932644e-03</internalNodes>
          <leafValues>
            2.3722226917743683e-01 -1.0801221430301666e-01</leafValues></_></weakClassifiers></_>
    <!-- stage 12 -->
    <_>
      <maxWeakCount>60</maxWeakCount>
      <stageThreshold>-7.1568769216537476e-01</stageThreshold>
      <weakClassifiers>
        <_>
          <internalNodes>
            0 -1 90 -3.4565732348710299e-03</internalNodes>
          <leafValues>
            5.5651426315307617e-01 1.6547696292400360e-01</leafValues></_>
        <_>
          <internalNodes>
            0 -1 466 -2.2809512913227081e-02</internalNodes>
          <leafValues>
            6.0881710052490234e-01 -4.3054543435573578e-02</leafValues></_>
        <_>
          <internalNodes>
            0 -1 249 4.1668303310871124e-02</internalNodes>
          <leafValues>
            -3.3430048823356628e-01 1.3172768056392670e-01</leafValues></_>
        <_>
          <internalNodes>
            0 -1 378 -6.2988628633320332e-04</internalNodes>
          <leafValues>
            1.9902493059635162e-01 -2.1201521158218384e-01</leafValues></_>
        <_>
          <internalNodes>
            0 -1 258 7.5320359319448471e-03</internalNodes>
          <leafValues>
            -7.0876739919185638e-02 4.3720752000808716e-01</leafValues></_>
        <_>
          <internalNodes>
            0 -1 10 1.8504373729228973e-02</internalNodes>
          <leafValues>
            -6.5947204828262329e-02 5.9606045484542847e-01</leafValues></_>
        <_>
          <internalNodes>
            0 -1 13 7.2575407102704048e-03</internalNodes>
          <leafValues>
            -1.4775787293910980e-01 2.2439415752887726e-01</leafValues></_>
        <_>
          <internalNodes>
            0 -1 456 -7.3324511758983135e-03</internalNodes>
          <leafValues>
            2.7729919552803040e-01 -1.0542507469654083e-01</leafValues></_>
        <_>
          <internalNodes>
            0 -1 478 -4.8096105456352234e-03</internalNodes>
          <leafValues>
            2.9471924901008606e-01 -9.9440880119800568e-02</leafValues></_>
        <_>
          <internalNodes>
            0 -1 366 3.1844296026974916e-03</internalNodes>
          <leafValues>
            -8.8301688432693481e-02 3.2537019252777100e-01</leafValues></_>
        <_>
          <internalNodes>
            0 -1 182 8.4215272217988968e-03</internalNodes>
          <leafValues>
            -8.4968253970146179e-02 3.0763259530067444e-01</leafValues></_>
        <_>
          <internalNodes>
